{"learner":{"attributes":{"scikit_learn":"{\"_estimator_type\": \"regressor\"}"},"feature_names":["elo_own","elo_opp","elo_diff_adj","is_home","opp_is_home","form_pts_own","form_gf_own","form_ga_own","form_pts_opp","form_gf_opp","form_ga_opp","confed_own","confed_opp","importance"],"feature_types":["float","float","float","int","int","float","float","float","float","float","float","int","int","int"],"gradient_booster":{"model":{"cats":{"enc":[],"feature_segments":[],"sorted_idx":[]},"gbtree_model_param":{"num_parallel_tree":"1","num_trees":"500"},"iteration_indptr":[0,1,2,3,4,5,6,7,8,9,10,11,12,13,14,15,16,17,18,19,20,21,22,23,24,25,26,27,28,29,30,31,32,33,34,35,36,37,38,39,40,41,42,43,44,45,46,47,48,49,50,51,52,53,54,55,56,57,58,59,60,61,62,63,64,65,66,67,68,69,70,71,72,73,74,75,76,77,78,79,80,81,82,83,84,85,86,87,88,89,90,91,92,93,94,95,96,97,98,99,100,101,102,103,104,105,106,107,108,109,110,111,112,113,114,115,116,117,118,119,120,121,122,123,124,125,126,127,128,129,130,131,132,133,134,135,136,137,138,139,140,141,142,143,144,145,146,147,148,149,150,151,152,153,154,155,156,157,158,159,160,161,162,163,164,165,166,167,168,169,170,171,172,173,174,175,176,177,178,179,180,181,182,183,184,185,186,187,188,189,190,191,192,193,194,195,196,197,198,199,200,201,202,203,204,205,206,207,208,209,210,211,212,213,214,215,216,217,218,219,220,221,222,223,224,225,226,227,228,229,230,231,232,233,234,235,236,237,238,239,240,241,242,243,244,245,246,247,248,249,250,251,252,253,254,255,256,257,258,259,260,261,262,263,264,265,266,267,268,269,270,271,272,273,274,275,276,277,278,279,280,281,282,283,284,285,286,287,288,289,290,291,292,293,294,295,296,297,298,299,300,301,302,303,304,305,306,307,308,309,310,311,312,313,314,315,316,317,318,319,320,321,322,323,324,325,326,327,328,329,330,331,332,333,334,335,336,337,338,339,340,341,342,343,344,345,346,347,348,349,350,351,352,353,354,355,356,357,358,359,360,361,362,363,364,365,366,367,368,369,370,371,372,373,374,375,376,377,378,379,380,381,382,383,384,385,386,387,388,389,390,391,392,393,394,395,396,397,398,399,400,401,402,403,404,405,406,407,408,409,410,411,412,413,414,415,416,417,418,419,420,421,422,423,424,425,426,427,428,429,430,431,432,433,434,435,436,437,438,439,440,441,442,443,444,445,446,447,448,449,450,451,452,453,454,455,456,457,458,459,460,461,462,463,464,465,466,467,468,469,470,471,472,473,474,475,476,477,478,479,480,481,482,483,484,485,486,487,488,489,490,491,492,493,494,495,496,497,498,499,500],"tree_info":[0,0,0,0,0,0,0,0,0,0,0,0,0,0,0,0,0,0,0,0,0,0,0,0,0,0,0,0,0,0,0,0,0,0,0,0,0,0,0,0,0,0,0,0,0,0,0,0,0,0,0,0,0,0,0,0,0,0,0,0,0,0,0,0,0,0,0,0,0,0,0,0,0,0,0,0,0,0,0,0,0,0,0,0,0,0,0,0,0,0,0,0,0,0,0,0,0,0,0,0,0,0,0,0,0,0,0,0,0,0,0,0,0,0,0,0,0,0,0,0,0,0,0,0,0,0,0,0,0,0,0,0,0,0,0,0,0,0,0,0,0,0,0,0,0,0,0,0,0,0,0,0,0,0,0,0,0,0,0,0,0,0,0,0,0,0,0,0,0,0,0,0,0,0,0,0,0,0,0,0,0,0,0,0,0,0,0,0,0,0,0,0,0,0,0,0,0,0,0,0,0,0,0,0,0,0,0,0,0,0,0,0,0,0,0,0,0,0,0,0,0,0,0,0,0,0,0,0,0,0,0,0,0,0,0,0,0,0,0,0,0,0,0,0,0,0,0,0,0,0,0,0,0,0,0,0,0,0,0,0,0,0,0,0,0,0,0,0,0,0,0,0,0,0,0,0,0,0,0,0,0,0,0,0,0,0,0,0,0,0,0,0,0,0,0,0,0,0,0,0,0,0,0,0,0,0,0,0,0,0,0,0,0,0,0,0,0,0,0,0,0,0,0,0,0,0,0,0,0,0,0,0,0,0,0,0,0,0,0,0,0,0,0,0,0,0,0,0,0,0,0,0,0,0,0,0,0,0,0,0,0,0,0,0,0,0,0,0,0,0,0,0,0,0,0,0,0,0,0,0,0,0,0,0,0,0,0,0,0,0,0,0,0,0,0,0,0,0,0,0,0,0,0,0,0,0,0,0,0,0,0,0,0,0,0,0,0,0,0,0,0,0,0,0,0,0,0,0,0,0,0,0,0,0,0,0,0,0,0,0,0,0,0,0,0,0,0,0,0,0,0,0,0,0,0,0,0,0,0,0,0,0,0,0,0,0,0,0,0,0,0,0,0,0,0,0,0,0,0,0,0,0,0,0,0,0,0,0,0,0,0,0,0,0,0,0,0,0,0,0],"trees":[{"base_weights":[2.5758718E-4,-1.1246783E-1,3.5111505E-1,-2.2216839E-1,-1.522971E-2,2.5427312E-1,7E-1,-3.3102044E-1,-1.8929906E-1,-7.364755E-2,4.9247984E-2,2.1302018E-1,7E-1,4.535293E-1,7E-1,-1.8465344E-2,-1.4780183E-2,-1.11447E-2,-7.890044E-3,-3.7388012E-3,3.5E-2,1.8798951E-3,2.3243373E-2,7.946863E-3,1.4600064E-2,1.0955889E-2,3.5E-2,2.0617982E-2,3.5E-2,3.5E-2,2.8123364E-2],"categories":[],"categories_nodes":[],"categories_segments":[],"categories_sizes":[],"default_left":[0,0,0,0,0,0,0,0,0,0,0,0,0,0,0,0,0,0,0,0,0,0,0,0,0,0,0,0,0,0,0],"id":0,"left_children":[1,3,5,7,9,11,13,15,17,19,21,23,25,27,29,-1,-1,-1,-1,-1,-1,-1,-1,-1,-1,-1,-1,-1,-1,-1,-1],"loss_changes":[6.210763E3,1.2677651E3,1.4606475E3,1.9968506E2,2.3732637E2,5.751979E2,1.0023242E2,1.7340942E1,4.5323364E1,3.7290665E1,1.4498553E2,1.20328735E2,4.3283203E1,2.1328247E1,1.5487549E1,0E0,0E0,0E0,0E0,0E0,0E0,0E0,0E0,0E0,0E0,0E0,0E0,0E0,0E0,0E0,0E0],"parents":[2147483647,0,0,1,1,2,2,3,3,4,4,5,5,6,6,7,7,8,8,9,9,10,10,11,11,12,12,13,13,14,14],"right_children":[2,4,6,8,10,12,14,16,18,20,22,24,26,28,30,-1,-1,-1,-1,-1,-1,-1,-1,-1,-1,-1,-1,-1,-1,-1,-1],"split_conditions":[1.5633946E2,-8.233491E1,4.0077466E2,-3.2330783E2,3.6851086E1,2.875E0,5E0,-4.2854648E2,-1.7726297E2,6E0,3.25E0,2.574136E2,5E0,5.5340674E2,1.387619E3,-1.8465344E-2,-1.4780183E-2,-1.11447E-2,-7.890044E-3,-3.7388012E-3,3.5E-2,1.8798951E-3,2.3243373E-2,7.946863E-3,1.4600064E-2,1.0955889E-2,3.5E-2,2.0617982E-2,3.5E-2,3.5E-2,2.8123364E-2],"split_indices":[2,2,2,2,2,10,12,2,2,10,10,2,12,2,1,0,0,0,0,0,0,0,0,0,0,0,0,0,0,0,0],"split_type":[0,0,0,0,0,0,0,0,0,0,0,0,0,0,0,0,0,0,0,0,0,0,0,0,0,0,0,0,0,0,0],"sum_hessian":[1.5702953E5,1.1884705E5,3.8182477E4,5.5843664E4,6.3003387E4,3.0749463E4,7.433014E3,1.2947569E4,4.2896094E4,3.305486E4,2.9948525E4,2.8189713E4,2.5597493E3,1.6641077E3,5.7689067E3,6.2126685E3,6.734901E3,2.0751287E4,2.2144809E4,3.302239E4,3.2470394E1,2.913406E4,8.144657E2,1.6735781E4,1.1453932E4,1.8941063E2,2.3703386E3,1.4909323E3,1.7317543E2,4.9003237E3,8.68583E2],"tree_param":{"num_deleted":"0","num_feature":"14","num_nodes":"31","size_leaf_vector":"1"}},{"base_weights":[1.4076869E-3,-1.0985203E-1,3.4277263E-1,-2.1748403E-1,-1.630662E-2,2.5171304E-1,7E-1,-2.9136214E-1,-1.6469233E-1,-6.748427E-2,5.2580055E-2,1.59983E-1,3.5944733E-1,7E-1,4.7051126E-1,-1.7872129E-2,-1.302734E-2,-9.739376E-3,-7.0813647E-3,-4.3794126E-3,-8.374533E-4,9.357032E-3,1.8169573E-3,6.7148134E-3,1.19265895E-2,1.3413635E-2,2.3262374E-2,2.5758455E-2,3.5E-2,2.187664E-2,3.5E-2],"categories":[],"categories_nodes":[],"categories_segments":[],"categories_sizes":[],"default_left":[0,0,0,0,0,0,0,0,0,0,0,0,0,0,0,0,0,0,0,0,0,0,0,0,0,0,0,0,0,0,0],"id":1,"left_children":[1,3,5,7,9,11,13,15,17,19,21,23,25,27,29,-1,-1,-1,-1,-1,-1,-1,-1,-1,-1,-1,-1,-1,-1,-1,-1],"loss_changes":[5.977306E3,1.195063E3,1.3188931E3,2.1515869E2,2.2389052E2,3.0755933E2,1.07170654E2,4.6646973E1,2.2292358E1,3.7161713E1,5.9145172E1,3.387149E1,1.378468E2,3.0456055E1,1.6386993E1,0E0,0E0,0E0,0E0,0E0,0E0,0E0,0E0,0E0,0E0,0E0,0E0,0E0,0E0,0E0,0E0],"parents":[2147483647,0,0,1,1,2,2,3,3,4,4,5,5,6,6,7,7,8,8,9,9,10,10,11,11,12,12,13,13,14,14],"right_children":[2,4,6,8,10,12,14,16,18,20,22,24,26,28,30,-1,-1,-1,-1,-1,-1,-1,-1,-1,-1,-1,-1,-1,-1,-1,-1],"split_conditions":[1.5633946E2,-8.233491E1,4.0077466E2,-2.3551955E2,4.7893017E1,5E0,1.387619E3,-4.0045706E2,-1.5900206E2,5E0,1.3223405E3,2.8705002E2,4E0,3E1,5.5340674E2,-1.7872129E-2,-1.302734E-2,-9.739376E-3,-7.0813647E-3,-4.3794126E-3,-8.374533E-4,9.357032E-3,1.8169573E-3,6.7148134E-3,1.19265895E-2,1.3413635E-2,2.3262374E-2,2.5758455E-2,3.5E-2,2.187664E-2,3.5E-2],"split_indices":[2,2,2,2,2,12,1,2,2,12,1,2,11,13,2,0,0,0,0,0,0,0,0,0,0,0,0,0,0,0,0],"split_type":[0,0,0,0,0,0,0,0,0,0,0,0,0,0,0,0,0,0,0,0,0,0,0,0,0,0,0,0,0,0,0],"sum_hessian":[1.573757E5,1.1869219E5,3.868351E4,5.5189402E4,6.350278E4,3.1131295E4,7.552218E3,2.2997314E4,3.2192088E4,3.6434625E4,2.7068158E4,1.681726E4,1.4314034E4,5.5006553E3,2.0515623E3,7.306991E3,1.5690323E4,1.3960967E4,1.8231121E4,2.6093525E4,1.0341098E4,2.9129006E3,2.4155258E4,1.2677072E4,4.140188E3,7.6922295E3,6.621805E3,9.18177E2,4.5824785E3,1.820032E3,2.3153035E2],"tree_param":{"num_deleted":"0","num_feature":"14","num_nodes":"31","size_leaf_vector":"1"}},{"base_weights":[-3.8310065E-4,-1.07874334E-1,3.223804E-1,-2.1570335E-1,-1.409296E-2,2.501991E-1,7E-1,-2.955013E-1,-1.7100275E-1,-6.6129364E-2,5.176199E-2,1.8619215E-1,4.9571133E-1,3.585993E-1,7E-1,-1.8164266E-2,-1.3283289E-2,-9.821019E-3,-7.352003E-3,-3.5670896E-3,7.113382E-3,1.9998618E-3,2.247364E-2,7.629634E-3,1.3063977E-2,2.1185E-2,3.5E-2,1.0425078E-2,3.1081146E-2,3.5E-2,1.3325222E-2],"categories":[],"categories_nodes":[],"categories_segments":[],"categories_sizes":[],"default_left":[0,0,0,0,0,0,0,0,0,0,0,0,0,0,0,0,0,0,0,0,0,0,0,0,0,0,0,0,0,0,0],"id":2,"left_children":[1,3,5,7,9,11,13,15,17,19,21,23,25,27,29,-1,-1,-1,-1,-1,-1,-1,-1,-1,-1,-1,-1,-1,-1,-1,-1],"loss_changes":[5.456872E3,1.1931503E3,1.2582036E3,1.9567163E2,2.1626785E2,5.328313E2,9.401465E1,3.9654175E1,2.137146E1,3.8314316E1,1.303034E2,6.78056E1,1.2476099E2,3.191719E1,3.0046875E1,0E0,0E0,0E0,0E0,0E0,0E0,0E0,0E0,0E0,0E0,0E0,0E0,0E0,0E0,0E0,0E0],"parents":[2147483647,0,0,1,1,2,2,3,3,4,4,5,5,6,6,7,7,8,8,9,9,10,10,11,11,12,12,13,13,14,14],"right_children":[2,4,6,8,10,12,14,16,18,20,22,24,26,28,30,-1,-1,-1,-1,-1,-1,-1,-1,-1,-1,-1,-1,-1,-1,-1,-1],"split_conditions":[1.5633946E2,-8.233491E1,2.75E0,-2.574359E2,4.5467537E1,3.7132864E2,3E1,-4.2854648E2,-1.5900206E2,2.875E0,3.25E0,2.7192334E2,5.5340674E2,4.0077466E2,1.4651106E3,-1.8164266E-2,-1.3283289E-2,-9.821019E-3,-7.352003E-3,-3.5670896E-3,7.113382E-3,1.9998618E-3,2.247364E-2,7.629634E-3,1.3063977E-2,2.1185E-2,3.5E-2,1.0425078E-2,3.1081146E-2,3.5E-2,1.3325222E-2],"split_indices":[2,2,10,2,2,2,13,2,2,10,10,2,2,2,1,0,0,0,0,0,0,0,0,0,0,0,0,0,0,0,0],"split_type":[0,0,0,0,0,0,0,0,0,0,0,0,0,0,0,0,0,0,0,0,0,0,0,0,0,0,0,0,0,0,0],"sum_hessian":[1.5728064E5,1.1798796E5,3.929268E4,5.488224E4,6.310572E4,3.391675E4,5.3759287E3,1.9701172E4,3.5181066E4,3.52513E4,2.785442E4,2.6905732E4,7.011017E3,8.1302075E2,4.562908E3,6.0144517E3,1.3686721E4,1.706526E4,1.8115805E4,3.4392395E4,8.589073E2,2.7056266E4,7.98155E2,1.8592273E4,8.313458E3,5.478902E3,1.5321152E3,5.1991187E2,2.931089E2,4.399799E3,1.6310925E2],"tree_param":{"num_deleted":"0","num_feature":"14","num_nodes":"31","size_leaf_vector":"1"}},{"base_weights":[8.4267196E-4,-1.155227E-1,2.9246628E-1,-2.1231197E-1,-2.5061756E-2,2.3027924E-1,7E-1,-2.860632E-1,-1.6030239E-1,-6.7587815E-2,3.4938794E-2,1.7137687E-1,4.8482808E-1,3.76913E-1,7E-1,-1.7415987E-2,-1.2510123E-2,-9.061929E-3,-6.6738687E-3,-4.3861456E-3,-8.1582525E-4,1.2167135E-3,1.9477364E-2,6.0004634E-3,1.193799E-2,2.0796949E-2,3.5E-2,1.1898775E-2,3.402173E-2,2.7782131E-2,3.5E-2],"categories":[],"categories_nodes":[],"categories_segments":[],"categories_sizes":[],"default_left":[0,0,0,0,0,0,0,0,0,0,0,0,0,0,0,0,0,0,0,0,0,0,0,0,0,0,0,0,0,0,0],"id":3,"left_children":[1,3,5,7,9,11,13,15,17,19,21,23,25,27,29,-1,-1,-1,-1,-1,-1,-1,-1,-1,-1,-1,-1,-1,-1,-1,-1],"loss_changes":[5.3362227E3,9.841139E2,1.3184167E3,2.0818994E2,1.4825452E2,5.956853E2,7.789111E1,4.9954956E1,1.7838013E1,3.5099716E1,9.0609856E1,1.1165869E2,1.173739E2,3.1539146E1,2.5201416E1,0E0,0E0,0E0,0E0,0E0,0E0,0E0,0E0,0E0,0E0,0E0,0E0,0E0,0E0,0E0,0E0],"parents":[2147483647,0,0,1,1,2,2,3,3,4,4,5,5,6,6,7,7,8,8,9,9,10,10,11,11,12,12,13,13,14,14],"right_children":[2,4,6,8,10,12,14,16,18,20,22,24,26,28,30,-1,-1,-1,-1,-1,-1,-1,-1,-1,-1,-1,-1,-1,-1,-1,-1],"split_conditions":[1.340646E2,-8.233491E1,2.875E0,-2.3551955E2,4.1294395E1,3.7132864E2,3E1,-3.8067484E2,-1.3931935E2,5E0,3.125E0,2.318448E2,5.5340674E2,4.1298135E2,3.25E0,-1.7415987E-2,-1.2510123E-2,-9.061929E-3,-6.6738687E-3,-4.3861456E-3,-8.1582525E-4,1.2167135E-3,1.9477364E-2,6.0004634E-3,1.193799E-2,2.0796949E-2,3.5E-2,1.1898775E-2,3.402173E-2,2.7782131E-2,3.5E-2],"split_indices":[2,2,10,2,2,2,13,2,2,12,10,2,2,2,10,0,0,0,0,0,0,0,0,0,0,0,0,0,0,0,0],"split_type":[0,0,0,0,0,0,0,0,0,0,0,0,0,0,0,0,0,0,0,0,0,0,0,0,0,0,0,0,0,0,0],"sum_hessian":[1.5724488E5,1.12396836E5,4.4848035E4,5.429783E4,5.8099004E4,3.9738543E4,5.1094917E3,2.2451664E4,3.1846162E4,3.400051E4,2.4098494E4,3.227377E4,7.4647754E3,7.535746E2,4.355917E3,8.199454E3,1.4252211E4,1.7879883E4,1.3966279E4,2.4412062E4,9.588448E3,2.3400832E4,6.9766187E2,1.8316348E4,1.3957423E4,5.7490723E3,1.7157029E3,5.193907E2,2.3418391E2,1.2543752E3,3.1015417E3],"tree_param":{"num_deleted":"0","num_feature":"14","num_nodes":"31","size_leaf_vector":"1"}},{"base_weights":[6.020285E-4,-1.2550153E-1,2.525016E-1,-2.1513237E-1,-4.244715E-2,1.8167292E-1,6.3203317E-1,-3.294249E-1,-1.8553117E-1,-7.718167E-2,1.2561698E-2,1.5059048E-1,4.941874E-1,4.9111333E-1,7E-1,-1.797013E-2,-1.4301792E-2,-1.1600888E-2,-8.026058E-3,-3.916211E-3,3.4794983E-2,1.6121361E-4,1.4291316E-2,4.965379E-3,1.162221E-2,2.0652307E-2,3.5E-2,2.1644616E-2,3.5E-2,2.5027236E-2,3.5E-2],"categories":[],"categories_nodes":[],"categories_segments":[],"categories_sizes":[],"default_left":[0,0,0,0,0,0,0,0,0,0,0,0,0,0,0,0,0,0,0,0,0,0,0,0,0,0,0,0,0,0,0],"id":4,"left_children":[1,3,5,7,9,11,13,15,17,19,21,23,25,27,29,-1,-1,-1,-1,-1,-1,-1,-1,-1,-1,-1,-1,-1,-1,-1,-1],"loss_changes":[5.0017764E3,7.811084E2,1.4118477E3,1.706167E2,1.0407004E2,4.298844E2,2.0259717E2,1.3294556E1,4.6534668E1,2.9598053E1,5.379151E1,1.6899011E2,9.546417E1,7.4761475E1,1.3542236E1,0E0,0E0,0E0,0E0,0E0,0E0,0E0,0E0,0E0,0E0,0E0,0E0,0E0,0E0,0E0,0E0],"parents":[2147483647,0,0,1,1,2,2,3,3,4,4,5,5,6,6,7,7,8,8,9,9,10,10,11,11,12,12,13,13,14,14],"right_children":[2,4,6,8,10,12,14,16,18,20,22,24,26,28,30,-1,-1,-1,-1,-1,-1,-1,-1,-1,-1,-1,-1,-1,-1,-1,-1],"split_conditions":[1.06068054E2,-9.400174E1,4.0077466E2,-3.4579834E2,2.8019833E1,2.75E0,2.625E0,1.3573573E3,-2.2094664E2,5.625E0,2.875E0,2.318448E2,4.375E0,5.8889655E2,3E1,-1.797013E-2,-1.4301792E-2,-1.1600888E-2,-8.026058E-3,-3.916211E-3,3.4794983E-2,1.6121361E-4,1.4291316E-2,4.965379E-3,1.162221E-2,2.0652307E-2,3.5E-2,2.1644616E-2,3.5E-2,2.5027236E-2,3.5E-2],"split_indices":[2,2,2,2,2,10,10,0,2,10,10,2,10,2,13,0,0,0,0,0,0,0,0,0,0,0,0,0,0,0,0],"split_type":[0,0,0,0,0,0,0,0,0,0,0,0,0,0,0,0,0,0,0,0,0,0,0,0,0,0,0,0,0,0,0],"sum_hessian":[1.5745573E5,1.0492846E5,5.2527277E4,5.046467E4,5.446379E4,4.426874E4,8.258536E3,1.0377211E4,4.008746E4,3.338348E4,2.1080307E4,4.02668E4,4.0019385E3,5.5381445E3,2.7203914E3,6.128461E3,4.24875E3,1.4017079E4,2.6070383E4,3.333601E4,4.7470787E1,2.038575E4,6.9455554E2,2.475915E4,1.550765E4,3.2289714E3,7.729672E2,4.4478037E3,1.0903406E3,3.630408E2,2.3573506E3],"tree_param":{"num_deleted":"0","num_feature":"14","num_nodes":"31","size_leaf_vector":"1"}},{"base_weights":[-3.17277E-4,-1.1121651E-1,2.663257E-1,-2.0815238E-1,-2.289156E-2,2.1576025E-1,7E-1,-3.2320204E-1,-1.768949E-1,-6.952071E-2,2.806076E-2,1.609536E-1,4.5548552E-1,5.319735E-1,7E-1,-1.26671465E-2,-1.7204987E-2,-1.0926674E-2,-7.4346634E-3,-3.5364472E-3,3.5E-2,8.3099556E-4,1.5343546E-2,5.4799234E-3,1.1224523E-2,1.9491533E-2,3.2349873E-2,2.1296075E-2,3.5E-2,2.1710204E-2,3.5E-2],"categories":[],"categories_nodes":[],"categories_segments":[],"categories_sizes":[],"default_left":[0,0,0,0,0,0,0,0,0,0,0,0,0,0,0,0,0,0,0,0,0,0,0,0,0,0,0,0,0,0,0],"id":5,"left_children":[1,3,5,7,9,11,13,15,17,19,21,23,25,27,29,-1,-1,-1,-1,-1,-1,-1,-1,-1,-1,-1,-1,-1,-1,-1,-1],"loss_changes":[4.647807E3,9.504242E2,1.134198E3,1.9020874E2,1.3800842E2,5.4998364E2,5.498828E1,1.6328613E1,4.881018E1,2.9861603E1,8.853215E1,1.1116211E2,9.744971E1,4.6954773E1,4.256836E0,0E0,0E0,0E0,0E0,0E0,0E0,0E0,0E0,0E0,0E0,0E0,0E0,0E0,0E0,0E0,0E0],"parents":[2147483647,0,0,1,1,2,2,3,3,4,4,5,5,6,6,7,7,8,8,9,9,10,10,11,11,12,12,13,13,14,14],"right_children":[2,4,6,8,10,12,14,16,18,20,22,24,26,28,30,-1,-1,-1,-1,-1,-1,-1,-1,-1,-1,-1,-1,-1,-1,-1,-1],"split_conditions":[1.340646E2,-8.233491E1,3.125E0,-3.3024463E2,2.8019833E1,3.8083667E2,3.4579108E2,4E0,-1.9649098E2,5.375E0,2.875E0,2.318448E2,5.5340674E2,4.375E0,5E0,-1.26671465E-2,-1.7204987E-2,-1.0926674E-2,-7.4346634E-3,-3.5364472E-3,3.5E-2,8.3099556E-4,1.5343546E-2,5.4799234E-3,1.1224523E-2,1.9491533E-2,3.2349873E-2,2.1296075E-2,3.5E-2,2.1710204E-2,3.5E-2],"split_indices":[2,2,10,2,2,2,2,11,2,10,10,2,2,10,12,0,0,0,0,0,0,0,0,0,0,0,0,0,0,0,0],"split_type":[0,0,0,0,0,0,0,0,0,0,0,0,0,0,0,0,0,0,0,0,0,0,0,0,0,0,0,0,0,0,0],"sum_hessian":[1.5717312E5,1.1100593E5,4.6167203E4,5.292189E4,5.808404E4,4.1869523E4,4.2976787E3,1.13023955E4,4.1619496E4,3.0328291E4,2.7755746E4,3.4081145E4,7.78838E3,1.9803788E3,2.3172998E3,2.6085366E3,8.693858E3,1.6800598E4,2.4818898E4,3.0285191E4,4.3099476E1,2.6663732E4,1.092015E3,1.8850357E4,1.5230786E4,5.8045215E3,1.9838583E3,1.3811803E3,5.9919855E2,7.212329E1,2.2451765E3],"tree_param":{"num_deleted":"0","num_feature":"14","num_nodes":"31","size_leaf_vector":"1"}},{"base_weights":[-1.3467754E-4,-1.0974221E-1,2.5769004E-1,-2.0516959E-1,-2.368427E-2,2.0118928E-1,6.0460883E-1,-3.1994605E-1,-1.739544E-1,-6.563475E-2,2.7739007E-2,1.2354377E-1,2.9100844E-1,4.8035684E-1,7E-1,-1.9213153E-2,-1.4960204E-2,-1.03108045E-2,-6.866522E-3,-4.2465487E-3,-8.534733E-4,7.924141E-5,3.832411E-3,5.378572E-3,1.2424596E-2,9.922817E-3,1.8154493E-2,1.8316137E-2,2.9925007E-2,2.5041921E-2,3.5E-2],"categories":[],"categories_nodes":[],"categories_segments":[],"categories_sizes":[],"default_left":[0,0,0,0,0,0,0,0,0,0,0,0,0,0,0,0,0,0,0,0,0,0,0,0,0,0,0,0,0,0,0],"id":6,"left_children":[1,3,5,7,9,11,13,15,17,19,21,23,25,27,29,-1,-1,-1,-1,-1,-1,-1,-1,-1,-1,-1,-1,-1,-1,-1,-1],"loss_changes":[4.435508E3,9.044507E2,9.175054E2,1.8699634E2,1.24934814E2,2.8074963E2,1.11256836E2,1.4663452E1,4.8460693E1,2.9886353E1,3.3284206E1,4.3054596E1,1.24397095E2,4.7565613E1,1.6398071E1,0E0,0E0,0E0,0E0,0E0,0E0,0E0,0E0,0E0,0E0,0E0,0E0,0E0,0E0,0E0,0E0],"parents":[2147483647,0,0,1,1,2,2,3,3,4,4,5,5,6,6,7,7,8,8,9,9,10,10,11,11,12,12,13,13,14,14],"right_children":[2,4,6,8,10,12,14,16,18,20,22,24,26,28,30,-1,-1,-1,-1,-1,-1,-1,-1,-1,-1,-1,-1,-1,-1,-1,-1],"split_conditions":[1.340646E2,-8.233491E1,4.4378342E2,-3.3024463E2,3.4645912E1,5E0,5.5340674E2,-5.231134E2,-1.6772395E2,5E0,5E0,3.4579108E2,2.3551903E2,2E0,3E1,-1.9213153E-2,-1.4960204E-2,-1.03108045E-2,-6.866522E-3,-4.2465487E-3,-8.534733E-4,7.924141E-5,3.832411E-3,5.378572E-3,1.2424596E-2,9.922817E-3,1.8154493E-2,1.8316137E-2,2.9925007E-2,2.5041921E-2,3.5E-2],"split_indices":[2,2,2,2,2,12,2,2,2,12,12,2,2,11,13,0,0,0,0,0,0,0,0,0,0,0,0,0,0,0,0],"split_type":[0,0,0,0,0,0,0,0,0,0,0,0,0,0,0,0,0,0,0,0,0,0,0,0,0,0,0,0,0,0,0],"sum_hessian":[1.5695216E5,1.1013308E5,4.681909E4,5.222234E4,5.791074E4,4.0264574E4,6.5545127E3,1.1161958E4,4.106038E4,3.1892594E4,2.6018143E4,2.159833E4,1.8666244E4,3.5611519E3,2.9933608E3,2.7133406E3,8.448618E3,2.182536E4,1.9235021E4,2.2822959E4,9.069637E3,1.6954041E4,9.064102E3,1.9153613E4,2.444717E3,8.1759175E3,1.0490327E4,1.8162623E3,1.7448894E3,4.3612192E2,2.557239E3],"tree_param":{"num_deleted":"0","num_feature":"14","num_nodes":"31","size_leaf_vector":"1"}},{"base_weights":[-5.1905564E-4,2.672252E-1,-5.2627344E-2,4.043334E-2,3.907548E-1,-1.6286987E-1,9.525877E-3,1.3879241E-1,-7.825023E-2,2.8924483E-1,7E-1,-1.00386925E-1,-2.4161965E-1,1.4188097E-1,-4.5008935E-2,1.8380398E-3,1.566644E-2,-1.0297119E-2,7.0121273E-4,2.4267789E-2,1.1298736E-2,2.8619755E-2,3.5E-2,-1.2700424E-2,-3.2075827E-3,-1.653946E-2,-1.0583005E-2,4.9210466E-3,1.2243474E-2,-3.9677992E-3,4.129574E-3],"categories":[],"categories_nodes":[],"categories_segments":[],"categories_sizes":[],"default_left":[0,0,0,0,0,0,0,0,0,0,0,0,0,0,0,0,0,0,0,0,0,0,0,0,0,0,0,0,0,0,0],"id":7,"left_children":[1,3,5,7,9,11,13,15,17,19,21,23,25,27,29,-1,-1,-1,-1,-1,-1,-1,-1,-1,-1,-1,-1,-1,-1,-1,-1],"loss_changes":[2.1919517E3,7.170344E2,9.0113226E2,1.0540644E2,6.4152246E2,2.332561E2,6.0705804E2,8.789992E1,4.822538E1,1.6356628E2,2.3132812E1,1.4715326E2,5.589514E1,1.097973E2,2.610573E2,0E0,0E0,0E0,0E0,0E0,0E0,0E0,0E0,0E0,0E0,0E0,0E0,0E0,0E0,0E0,0E0],"parents":[2147483647,0,0,1,1,2,2,3,3,4,4,5,5,6,6,7,7,8,8,9,9,10,10,11,11,12,12,13,13,14,14],"right_children":[2,4,6,8,10,12,14,16,18,20,22,24,26,28,30,-1,-1,-1,-1,-1,-1,-1,-1,-1,-1,-1,-1,-1,-1,-1,-1],"split_conditions":[1.3660267E3,1.3736008E3,1.5589065E3,1.21908E3,3.125E0,1.5900507E3,1.5875614E3,1.2417452E3,1.21908E3,1.1956088E3,3.75E0,1.3017241E3,1.3573573E3,1.7537411E3,1.8803904E3,1.8380398E-3,1.566644E-2,-1.0297119E-2,7.0121273E-4,2.4267789E-2,1.1298736E-2,2.8619755E-2,3.5E-2,-1.2700424E-2,-3.2075827E-3,-1.653946E-2,-1.0583005E-2,4.9210466E-3,1.2243474E-2,-3.9677992E-3,4.129574E-3],"split_indices":[1,0,0,1,10,1,1,0,0,1,10,0,0,0,0,0,0,0,0,0,0,0,0,0,0,0,0,0,0,0,0],"split_type":[0,0,0,0,0,0,0,0,0,0,0,0,0,0,0,0,0,0,0,0,0,0,0,0,0,0,0,0,0,0,0],"sum_hessian":[1.5710603E5,2.5593346E4,1.3151269E5,9.025606E3,1.6567738E4,4.741263E4,8.410006E4,4.93521E3,4.0903967E3,1.3198045E4,3.369693E3,2.6439281E4,2.0973348E4,2.4539615E4,5.9560445E4,3.1160374E3,1.8191724E3,1.7148597E3,2.375537E3,3.2161086E3,9.981937E3,1.478844E3,1.890849E3,5.0437954E3,2.1395486E4,5.269495E3,1.5703852E4,1.7259992E4,7.2796216E3,4.6929008E4,1.2631437E4],"tree_param":{"num_deleted":"0","num_feature":"14","num_nodes":"31","size_leaf_vector":"1"}},{"base_weights":[1.1530775E-3,2.4804384E-1,-5.3478517E-2,1.7243199E-1,5.486059E-1,-1.61977E-2,-1.6856815E-1,3.037889E-1,2.5458597E-2,7E-1,3.749602E-1,7.214858E-2,-6.745329E-2,-2.0562823E-1,-6.0941897E-2,2.454213E-2,1.2295467E-2,-1.3471185E-3,7.338413E-3,1.7819967E-2,3.5E-2,1.3871538E-2,3.2961838E-2,1.4967195E-3,7.2676786E-3,-5.5415775E-3,-1.0433904E-3,-8.10825E-3,-1.4060967E-2,-6.2964703E-3,2.0893111E-3],"categories":[],"categories_nodes":[],"categories_segments":[],"categories_sizes":[],"default_left":[0,0,0,0,0,0,0,0,0,0,0,0,0,0,0,0,0,0,0,0,0,0,0,0,0,0,0,0,0,0,0],"id":8,"left_children":[1,3,5,7,9,11,13,15,17,19,21,23,25,27,29,-1,-1,-1,-1,-1,-1,-1,-1,-1,-1,-1,-1,-1,-1,-1,-1],"loss_changes":[2.1200347E3,6.470165E2,5.522007E2,4.3933527E2,2.0301941E2,4.4021417E2,1.2557391E2,1.2986035E2,6.829445E1,4.2479736E1,8.759323E1,1.10293945E2,1.2431857E2,7.686243E1,5.387625E1,0E0,0E0,0E0,0E0,0E0,0E0,0E0,0E0,0E0,0E0,0E0,0E0,0E0,0E0,0E0,0E0],"parents":[2147483647,0,0,1,1,2,2,3,3,4,4,5,5,6,6,7,7,8,8,9,9,10,10,11,11,12,12,13,13,14,14],"right_children":[2,4,6,8,10,12,14,16,18,20,22,24,26,28,30,-1,-1,-1,-1,-1,-1,-1,-1,-1,-1,-1,-1,-1,-1,-1,-1],"split_conditions":[1.3807704E3,3.125E0,6E0,6E0,6E0,1.6085183E3,1.5E0,1.1956088E3,1.375E0,3E1,1.625E0,5E0,1.5E0,1.6396259E3,6E0,2.454213E-2,1.2295467E-2,-1.3471185E-3,7.338413E-3,1.7819967E-2,3.5E-2,1.3871538E-2,3.2961838E-2,1.4967195E-3,7.2676786E-3,-5.5415775E-3,-1.0433904E-3,-8.10825E-3,-1.4060967E-2,-6.2964703E-3,2.0893111E-3],"split_indices":[1,10,11,11,11,1,6,1,6,13,6,12,6,1,12,0,0,0,0,0,0,0,0,0,0,0,0,0,0,0,0],"split_type":[0,0,0,0,0,0,0,0,0,0,0,0,0,0,0,0,0,0,0,0,0,0,0,0,0,0,0,0,0,0,0],"sum_hessian":[1.5717494E5,2.8476598E4,1.28698336E5,2.2755248E4,5.721348E3,9.721115E4,3.1487186E4,1.201487E4,1.0740378E4,2.5508308E3,3.1705173E3,3.569131E4,6.1519844E4,2.3420676E4,8.06651E3,2.8356685E3,9.179202E3,7.501558E3,3.23882E3,3.6611118E2,2.1847197E3,2.363575E3,8.069422E2,2.2639115E4,1.3052191E4,3.1855092E4,2.9664752E4,1.4874468E4,8.546208E3,4.9405713E3,3.1259387E3],"tree_param":{"num_deleted":"0","num_feature":"14","num_nodes":"31","size_leaf_vector":"1"}},{"base_weights":[1.3082722E-3,-1.0321931E-1,2.3872E-1,-2.0416574E-1,-2.6330633E-2,1.6438358E-1,4.592706E-1,-3.1039095E-1,-1.7284517E-1,-6.7768E-2,2.7682858E-2,2.6872543E-1,1.294276E-1,3.6543694E-1,6.5001994E-1,-1.7162634E-2,-1.3310037E-2,-1.0413655E-2,-7.1975105E-3,-3.679546E-3,4.074567E-4,5.0102356E-3,7.069074E-4,4.7690542E-3,1.6183583E-2,4.879188E-3,8.70212E-3,1.5183548E-2,2.4673706E-2,2.595733E-2,3.5E-2],"categories":[],"categories_nodes":[],"categories_segments":[],"categories_sizes":[],"default_left":[0,0,0,0,0,0,0,0,0,0,0,0,0,0,0,0,0,0,0,0,0,0,0,0,0,0,0,0,0,0,0],"id":9,"left_children":[1,3,5,7,9,11,13,15,17,19,21,23,25,27,29,-1,-1,-1,-1,-1,-1,-1,-1,-1,-1,-1,-1,-1,-1,-1,-1],"loss_changes":[3.9024377E3,8.474302E2,7.8797363E2,1.5694934E2,1.3872409E2,1.3107642E2,2.1640137E2,1.542334E1,3.7265015E1,1.5505615E1,2.642853E1,8.586133E1,3.823584E1,6.3965332E1,7.054797E1,0E0,0E0,0E0,0E0,0E0,0E0,0E0,0E0,0E0,0E0,0E0,0E0,0E0,0E0,0E0,0E0],"parents":[2147483647,0,0,1,1,2,2,3,3,4,4,5,5,6,6,7,7,8,8,9,9,10,10,11,11,12,12,13,13,14,14],"right_children":[2,4,6,8,10,12,14,16,18,20,22,24,26,28,30,-1,-1,-1,-1,-1,-1,-1,-1,-1,-1,-1,-1,-1,-1,-1,-1],"split_conditions":[1.340646E2,-9.8694885E1,3.6296295E2,-3.3024463E2,3.221193E1,1.3573573E3,5.229567E2,1.3618673E3,-1.9649098E2,2.5E0,1E0,3E1,2.278483E2,4E0,2E0,-1.7162634E-2,-1.3310037E-2,-1.0413655E-2,-7.1975105E-3,-3.679546E-3,4.074567E-4,5.0102356E-3,7.069074E-4,4.7690542E-3,1.6183583E-2,4.879188E-3,8.70212E-3,1.5183548E-2,2.4673706E-2,2.595733E-2,3.5E-2],"split_indices":[2,2,2,2,2,1,2,0,2,9,5,13,2,11,11,0,0,0,0,0,0,0,0,0,0,0,0,0,0,0,0],"split_type":[0,0,0,0,0,0,0,0,0,0,0,0,0,0,0,0,0,0,0,0,0,0,0,0,0,0,0,0,0,0,0],"sum_hessian":[1.5725047E5,1.0918129E5,4.806918E4,4.720412E4,6.1977168E4,3.5954297E4,1.2114882E4,1.0744798E4,3.645932E4,3.5071195E4,2.6905973E4,9.019163E3,2.6935133E4,8.1242324E3,3.9906497E3,6.154507E3,4.5902915E3,1.6372586E4,2.0086736E4,3.2572885E4,2.4983113E3,4.2323086E3,2.2673664E4,2.1720984E3,6.847065E3,1.5720786E4,1.1214348E4,5.484984E3,2.6392488E3,2.4897925E3,1.500857E3],"tree_param":{"num_deleted":"0","num_feature":"14","num_nodes":"31","size_leaf_vector":"1"}},{"base_weights":[4.933677E-4,-1.1326227E-1,2.0772302E-1,-2.1448335E-1,-4.6669967E-2,1.7007305E-1,6.369867E-1,-3.1904367E-1,-1.8221295E-1,-7.777003E-2,1.2870943E-2,1.12105004E-1,3.336926E-1,3.18161E-1,7E-1,-1.7490238E-2,-1.3671129E-2,-1.1021684E-2,-8.053891E-3,-4.9473955E-3,-2.3160565E-3,1.6790787E-4,1.3736941E-2,3.707217E-3,8.191179E-3,1.4497325E-2,2.6808176E-2,1.52698085E-2,3.5E-2,2.6093734E-2,3.5E-2],"categories":[],"categories_nodes":[],"categories_segments":[],"categories_sizes":[],"default_left":[0,0,0,0,0,0,0,0,0,0,0,0,0,0,0,0,0,0,0,0,0,0,0,0,0,0,0,0,0,0,0],"id":10,"left_children":[1,3,5,7,9,11,13,15,17,19,21,23,25,27,29,-1,-1,-1,-1,-1,-1,-1,-1,-1,-1,-1,-1,-1,-1,-1,-1],"loss_changes":[3.6995588E3,6.82927E2,8.986631E2,1.3554443E2,1.1317198E2,4.8493127E2,1.27060425E2,1.3111694E1,2.4750854E1,2.6729294E1,5.223978E1,7.411139E1,1.1816699E2,5.2002106E0,5.0235962E1,0E0,0E0,0E0,0E0,0E0,0E0,0E0,0E0,0E0,0E0,0E0,0E0,0E0,0E0,0E0,0E0],"parents":[2147483647,0,0,1,1,2,2,3,3,4,4,5,5,6,6,7,7,8,8,9,9,10,10,11,11,12,12,13,13,14,14],"right_children":[2,4,6,8,10,12,14,16,18,20,22,24,26,28,30,-1,-1,-1,-1,-1,-1,-1,-1,-1,-1,-1,-1,-1,-1,-1,-1],"split_conditions":[1.06068054E2,-1.26157524E2,3.25E0,-3.4579834E2,2.8019833E1,3.232717E2,1.3698214E3,1.3660267E3,-2.3551955E2,-3.0267027E1,2.875E0,2.0582314E2,5.5340674E2,8.125E0,3.875E0,-1.7490238E-2,-1.3671129E-2,-1.1021684E-2,-8.053891E-3,-4.9473955E-3,-2.3160565E-3,1.6790787E-4,1.3736941E-2,3.707217E-3,8.191179E-3,1.4497325E-2,2.6808176E-2,1.52698085E-2,3.5E-2,2.6093734E-2,3.5E-2],"split_indices":[2,2,10,2,2,2,0,0,2,2,10,2,2,10,10,0,0,0,0,0,0,0,0,0,0,0,0,0,0,0,0],"split_type":[0,0,0,0,0,0,0,0,0,0,0,0,0,0,0,0,0,0,0,0,0,0,0,0,0,0,0,0,0,0,0],"sum_hessian":[1.569329E5,1.0131723E5,5.5615676E4,4.0203297E4,6.1113926E4,5.113363E4,4.48205E3,9.477427E3,3.0725871E4,4.0144562E4,2.0969365E4,3.775939E4,1.3374236E4,9.98303E2,3.4837466E3,5.6526543E3,3.824773E3,1.0933996E4,1.9791875E4,2.3987174E4,1.6157387E4,2.0236275E4,7.330907E2,2.1778879E4,1.5980513E4,1.1001996E4,2.3722395E3,9.7432324E2,2.3979729E1,1.6121952E3,1.8715515E3],"tree_param":{"num_deleted":"0","num_feature":"14","num_nodes":"31","size_leaf_vector":"1"}},{"base_weights":[2.6324657E-3,-9.108036E-2,2.4328557E-1,-1.9086489E-1,-1.1143105E-2,2.0380591E-1,6.560888E-1,-3.0100566E-1,-1.6204587E-1,-5.1791932E-2,3.8606055E-2,1.630972E-1,4.1242218E-1,3.1979856E-1,7E-1,-1.0170496E-2,-1.5979823E-2,-1.0300778E-2,-7.0796194E-3,-2.8401017E-3,7.162413E-3,1.4773502E-3,1.6428746E-2,5.789011E-3,1.10933995E-2,1.7042084E-2,2.6367879E-2,1.4474436E-2,3.5E-2,1.3235857E-2,3.5E-2],"categories":[],"categories_nodes":[],"categories_segments":[],"categories_sizes":[],"default_left":[0,0,0,0,0,0,0,0,0,0,0,0,0,0,0,0,0,0,0,0,0,0,0,0,0,0,0,0,0,0,0],"id":11,"left_children":[1,3,5,7,9,11,13,15,17,19,21,23,25,27,29,-1,-1,-1,-1,-1,-1,-1,-1,-1,-1,-1,-1,-1,-1,-1,-1],"loss_changes":[3.530037E3,8.9860504E2,7.146936E2,1.5895215E2,1.2649786E2,3.3993347E2,9.876111E1,1.8720581E1,3.5663452E1,3.3655334E1,7.386907E1,9.3131165E1,5.3419556E1,1.152005E1,6.621509E1,0E0,0E0,0E0,0E0,0E0,0E0,0E0,0E0,0E0,0E0,0E0,0E0,0E0,0E0,0E0,0E0],"parents":[2147483647,0,0,1,1,2,2,3,3,4,4,5,5,6,6,7,7,8,8,9,9,10,10,11,11,12,12,13,13,14,14],"right_children":[2,4,6,8,10,12,14,16,18,20,22,24,26,28,30,-1,-1,-1,-1,-1,-1,-1,-1,-1,-1,-1,-1,-1,-1,-1,-1],"split_conditions":[1.5633946E2,-8.233491E1,3.375E0,-3.3024463E2,4.5467537E1,4.283175E2,1.3773826E3,2E0,-2.1698524E2,2.875E0,3.25E0,5E0,5.5340674E2,1.625E0,3E1,-1.0170496E-2,-1.5979823E-2,-1.0300778E-2,-7.0796194E-3,-2.8401017E-3,7.162413E-3,1.4773502E-3,1.6428746E-2,5.789011E-3,1.10933995E-2,1.7042084E-2,2.6367879E-2,1.4474436E-2,3.5E-2,1.3235857E-2,3.5E-2],"split_indices":[2,2,10,2,2,2,0,11,2,10,10,12,2,9,13,0,0,0,0,0,0,0,0,0,0,0,0,0,0,0,0],"split_type":[0,0,0,0,0,0,0,0,0,0,0,0,0,0,0,0,0,0,0,0,0,0,0,0,0,0,0,0,0,0,0],"sum_hessian":[1.5652286E5,1.12655055E5,4.386781E4,5.010585E4,6.2549203E4,4.0041324E4,3.826483E3,1.0387594E4,3.9718258E4,3.4422957E4,2.8126244E4,3.3506535E4,6.534792E3,7.390646E2,3.0874182E3,1.6659203E3,8.721674E3,1.2604244E4,2.7114014E4,3.3562242E4,8.607137E2,2.7276297E4,8.4994745E2,1.856533E4,1.4941202E4,4.0317764E3,2.5030159E3,7.0784814E2,3.1216469E1,3.526464E2,2.7347717E3],"tree_param":{"num_deleted":"0","num_feature":"14","num_nodes":"31","size_leaf_vector":"1"}},{"base_weights":[1.1113854E-3,-1.098335E-1,1.979168E-1,-2.1067467E-1,-4.474193E-2,1.370663E-1,4.046366E-1,-3.0879423E-1,-1.7635159E-1,-8.641773E-2,-1.8842648E-3,8.612372E-2,2.0250668E-1,3.316403E-1,5.49551E-1,-1.0850544E-2,-1.6347552E-2,-1.0408207E-2,-7.6315925E-3,-4.875746E-3,-2.7184328E-3,-1.365557E-3,2.496523E-3,3.835367E-3,9.026045E-3,7.593757E-3,1.3971808E-2,1.3582605E-2,2.2431912E-2,2.1610338E-2,3.5E-2],"categories":[],"categories_nodes":[],"categories_segments":[],"categories_sizes":[],"default_left":[0,0,0,0,0,0,0,0,0,0,0,0,0,0,0,0,0,0,0,0,0,0,0,0,0,0,0,0,0,0,0],"id":12,"left_children":[1,3,5,7,9,11,13,15,17,19,21,23,25,27,29,-1,-1,-1,-1,-1,-1,-1,-1,-1,-1,-1,-1,-1,-1,-1,-1],"loss_changes":[3.4294116E3,6.5927136E2,7.1213525E2,1.3258203E2,1.0903075E2,1.4580774E2,1.3583887E2,1.6869934E1,2.1966125E1,1.0996292E1,3.9655056E1,2.184079E1,7.449664E1,5.9888733E1,9.101367E1,0E0,0E0,0E0,0E0,0E0,0E0,0E0,0E0,0E0,0E0,0E0,0E0,0E0,0E0,0E0,0E0],"parents":[2147483647,0,0,1,1,2,2,3,3,4,4,5,5,6,6,7,7,8,8,9,9,10,10,11,11,12,12,13,13,14,14],"right_children":[2,4,6,8,10,12,14,16,18,20,22,24,26,28,30,-1,-1,-1,-1,-1,-1,-1,-1,-1,-1,-1,-1,-1,-1,-1,-1],"split_conditions":[1.06068054E2,-1.26157524E2,3.6296295E2,-3.3024463E2,-4.515029E0,5E0,5.229567E2,2E0,-2.1698524E2,5E0,5E0,2.625E0,2.3956667E2,4E0,2E0,-1.0850544E-2,-1.6347552E-2,-1.0408207E-2,-7.6315925E-3,-4.875746E-3,-2.7184328E-3,-1.365557E-3,2.496523E-3,3.835367E-3,9.026045E-3,7.593757E-3,1.3971808E-2,1.3582605E-2,2.2431912E-2,2.1610338E-2,3.5E-2],"split_indices":[2,2,2,2,2,12,2,11,2,12,12,6,2,11,11,0,0,0,0,0,0,0,0,0,0,0,0,0,0,0,0],"split_type":[0,0,0,0,0,0,0,0,0,0,0,0,0,0,0,0,0,0,0,0,0,0,0,0,0,0,0,0,0,0,0],"sum_hessian":[1.5705952E5,1.0043966E5,5.6619848E4,3.93984E4,6.104126E4,4.3746004E4,1.2873845E4,1.0206117E4,2.9192281E4,3.0946309E4,3.0094951E4,2.4600318E4,1.9145686E4,8.565705E3,4.308139E3,1.6898326E3,8.516284E3,1.2462387E4,1.6729895E4,2.2983902E4,7.9624062E3,2.018874E4,9.90621E3,2.237225E4,2.2280684E3,1.1549967E4,7.5957188E3,5.6668115E3,2.8988938E3,2.6412107E3,1.6669285E3],"tree_param":{"num_deleted":"0","num_feature":"14","num_nodes":"31","size_leaf_vector":"1"}},{"base_weights":[-1.3845954E-3,-1.0820995E-1,1.8383554E-1,-2.1214913E-1,-4.8299074E-2,1.4989938E-1,5.5076694E-1,-3.0657858E-1,-1.8065082E-1,-8.819103E-2,-3.924071E-3,1.1042817E-1,3.3043885E-1,2.7872503E-1,6.4470935E-1,-1.09952865E-2,-1.6181743E-2,-1.0446394E-2,-7.7742324E-3,-5.1368065E-3,-2.2712382E-3,-1.0641031E-3,5.297928E-3,3.2696263E-3,7.751837E-3,1.4236823E-2,2.2371452E-2,1.2179827E-2,3.5E-2,1.31092295E-2,3.4847442E-2],"categories":[],"categories_nodes":[],"categories_segments":[],"categories_sizes":[],"default_left":[0,0,0,0,0,0,0,0,0,0,0,0,0,0,0,0,0,0,0,0,0,0,0,0,0,0,0,0,0,0,0],"id":13,"left_children":[1,3,5,7,9,11,13,15,17,19,21,23,25,27,29,-1,-1,-1,-1,-1,-1,-1,-1,-1,-1,-1,-1,-1,-1,-1,-1],"loss_changes":[3.0996611E3,6.1867126E2,7.133832E2,1.0794226E2,1.11573425E2,3.737234E2,1.2359607E2,1.3286316E1,1.9323975E1,2.063678E1,5.691952E1,8.6459656E1,5.005591E1,1.946305E1,7.164929E1,0E0,0E0,0E0,0E0,0E0,0E0,0E0,0E0,0E0,0E0,0E0,0E0,0E0,0E0,0E0,0E0],"parents":[2147483647,0,0,1,1,2,2,3,3,4,4,5,5,6,6,7,7,8,8,9,9,10,10,11,11,12,12,13,13,14,14],"right_children":[2,4,6,8,10,12,14,16,18,20,22,24,26,28,30,-1,-1,-1,-1,-1,-1,-1,-1,-1,-1,-1,-1,-1,-1,-1,-1],"split_conditions":[1.06068054E2,-1.3931935E2,3.25E0,-3.4579834E2,-4.515029E0,3.8083667E2,1.394288E3,2E0,-2.2094664E2,5E0,2E0,2.02795E2,5.5340674E2,6.375E0,3E1,-1.09952865E-2,-1.6181743E-2,-1.0446394E-2,-7.7742324E-3,-5.1368065E-3,-2.2712382E-3,-1.0641031E-3,5.297928E-3,3.2696263E-3,7.751837E-3,1.4236823E-2,2.2371452E-2,1.2179827E-2,3.5E-2,1.31092295E-2,3.4847442E-2],"split_indices":[2,2,10,2,2,2,0,11,2,12,10,2,2,10,13,0,0,0,0,0,0,0,0,0,0,0,0,0,0,0,0],"split_type":[0,0,0,0,0,0,0,0,0,0,0,0,0,0,0,0,0,0,0,0,0,0,0,0,0,0,0,0,0,0,0],"sum_hessian":[1.5665366E5,9.93529E4,5.730076E4,3.6325984E4,6.302691E4,5.245244E4,4.8483193E3,9.081853E3,2.7244133E4,3.318895E4,2.9837963E4,4.304481E4,9.407632E3,1.2465236E3,3.6017961E3,1.4979053E3,7.5839473E3,1.2822258E4,1.4421874E4,2.4763809E4,8.425141E3,2.5768902E4,4.0690615E3,2.142232E4,2.1622488E4,6.769849E3,2.6377832E3,1.1598674E3,8.665608E1,4.3422336E2,3.1675728E3],"tree_param":{"num_deleted":"0","num_feature":"14","num_nodes":"31","size_leaf_vector":"1"}},{"base_weights":[1.6431671E-3,-3.234226E-2,2.9341343E-1,-1.2264319E-1,1.944664E-2,2.2178891E-1,5.611913E-1,-1.8312515E-1,-3.6683347E-2,-1.8134493E-2,1.6326907E-1,9.1423854E-2,2.9053742E-1,2.618956E-1,7E-1,-1.4854453E-2,-7.914087E-3,-7.180559E-3,1.19553275E-4,-2.4625103E-3,3.0381617E-3,5.3678923E-3,1.285319E-2,-7.170529E-3,6.2573873E-3,5.144224E-3,1.7382583E-2,7.904176E-3,2.1406727E-2,7.895135E-3,3.5E-2],"categories":[],"categories_nodes":[],"categories_segments":[],"categories_sizes":[],"default_left":[0,0,0,0,0,0,0,0,0,0,0,0,0,0,0,0,0,0,0,0,0,0,0,0,0,0,0,0,0,0,0],"id":14,"left_children":[1,3,5,7,9,11,13,15,17,19,21,23,25,27,29,-1,-1,-1,-1,-1,-1,-1,-1,-1,-1,-1,-1,-1,-1,-1,-1],"loss_changes":[1.5615204E3,6.5962213E2,3.1485303E2,2.67263E2,4.8450983E2,1.1614783E2,1.7795447E2,8.534198E1,8.87233E1,1.7448242E2,9.733313E1,3.5511505E1,9.08985E1,2.195752E1,1.3385254E1,0E0,0E0,0E0,0E0,0E0,0E0,0E0,0E0,0E0,0E0,0E0,0E0,0E0,0E0,0E0,0E0],"parents":[2147483647,0,0,1,1,2,2,3,3,4,4,5,5,6,6,7,7,8,8,9,9,10,10,11,11,12,12,13,13,14,14],"right_children":[2,4,6,8,10,12,14,16,18,20,22,24,26,28,30,-1,-1,-1,-1,-1,-1,-1,-1,-1,-1,-1,-1,-1,-1,-1,-1],"split_conditions":[2.375E0,1.5487128E3,3.875E0,5E0,5E0,1.4300563E3,1.3736008E3,1.2943953E3,1.3087089E3,1.8279893E3,1.625E0,6E0,5E0,5E0,6E0,-1.4854453E-2,-7.914087E-3,-7.180559E-3,1.19553275E-4,-2.4625103E-3,3.0381617E-3,5.3678923E-3,1.285319E-2,-7.170529E-3,6.2573873E-3,5.144224E-3,1.7382583E-2,7.904176E-3,2.1406727E-2,7.895135E-3,3.5E-2],"split_indices":[10,0,10,12,12,0,0,0,0,0,10,12,12,10,12,0,0,0,0,0,0,0,0,0,0,0,0,0,0,0,0],"split_type":[0,0,0,0,0,0,0,0,0,0,0,0,0,0,0,0,0,0,0,0,0,0,0,0,0,0,0,0,0,0,0],"sum_hessian":[1.5747192E5,1.410448E5,1.642713E4,5.1407008E4,8.963778E4,1.2963378E4,3.4637537E3,3.017406E4,2.1232945E4,7.106903E4,1.8568754E4,4.4775103E3,8.485867E3,1.2781814E3,2.1855723E3,5.3965625E3,2.4777498E4,5.6811167E3,1.5551829E4,5.0968723E4,2.010031E4,1.1636501E4,6.9322524E3,5.614411E2,3.9160693E3,1.981408E3,6.5044595E3,7.892293E2,4.8895212E2,4.6882748E1,2.1386895E3],"tree_param":{"num_deleted":"0","num_feature":"14","num_nodes":"31","size_leaf_vector":"1"}},{"base_weights":[-5.416386E-4,-1.0522096E-1,1.7790478E-1,-2.0738833E-1,-4.73349E-2,1.2075093E-1,3.677821E-1,-3.0277824E-1,-1.763164E-1,-8.498579E-2,-5.1903976E-3,1.9689138E-1,9.534342E-2,3.0299878E-1,5.2873373E-1,-1.8151449E-2,-1.3992408E-2,-1.0284151E-2,-7.4116187E-3,-5.372158E-3,-3.3032745E-3,-2.0513814E-3,1.2241609E-3,2.6162423E-3,1.2104622E-2,3.2147926E-3,6.6452655E-3,1.2182294E-2,2.0829815E-2,2.0878626E-2,3.5E-2],"categories":[],"categories_nodes":[],"categories_segments":[],"categories_sizes":[],"default_left":[0,0,0,0,0,0,0,0,0,0,0,0,0,0,0,0,0,0,0,0,0,0,0,0,0,0,0,0,0,0,0],"id":15,"left_children":[1,3,5,7,9,11,13,15,17,19,21,23,25,27,29,-1,-1,-1,-1,-1,-1,-1,-1,-1,-1,-1,-1,-1,-1,-1,-1],"loss_changes":[2.9350825E3,5.856681E2,6.303629E2,1.0605127E2,1.00313065E2,8.635187E1,1.3981702E2,1.1950867E1,2.2224304E1,1.4172882E1,3.1725311E1,7.2973816E1,3.9035797E1,6.4438965E1,7.905786E1,0E0,0E0,0E0,0E0,0E0,0E0,0E0,0E0,0E0,0E0,0E0,0E0,0E0,0E0,0E0,0E0],"parents":[2147483647,0,0,1,1,2,2,3,3,4,4,5,5,6,6,7,7,8,8,9,9,10,10,11,11,12,12,13,13,14,14],"right_children":[2,4,6,8,10,12,14,16,18,20,22,24,26,28,30,-1,-1,-1,-1,-1,-1,-1,-1,-1,-1,-1,-1,-1,-1,-1,-1],"split_conditions":[1.06068054E2,-1.3931935E2,3.6296295E2,-3.4579834E2,-4.515029E0,1.3618673E3,5.5340674E2,-5.231134E2,-2.1698524E2,-7.238239E1,1.125E0,3E1,2.02795E2,4E0,2E0,-1.8151449E-2,-1.3992408E-2,-1.0284151E-2,-7.4116187E-3,-5.372158E-3,-3.3032745E-3,-2.0513814E-3,1.2241609E-3,2.6162423E-3,1.2104622E-2,3.2147926E-3,6.6452655E-3,1.2182294E-2,2.0829815E-2,2.0878626E-2,3.5E-2],"split_indices":[2,2,2,2,2,1,2,2,2,2,7,13,2,11,11,0,0,0,0,0,0,0,0,0,0,0,0,0,0,0,0],"split_type":[0,0,0,0,0,0,0,0,0,0,0,0,0,0,0,0,0,0,0,0,0,0,0,0,0,0,0,0,0,0,0],"sum_hessian":[1.5712327E5,9.9031016E4,5.8092246E4,3.5814395E4,6.3216625E4,4.4654367E4,1.3437879E4,8.795373E3,2.7019021E4,3.3387234E4,2.982939E4,1.1169238E4,3.348513E4,9.585476E3,3.8524033E3,2.4164038E3,6.378969E3,1.3201723E4,1.3817298E4,1.5262327E4,1.8124908E4,1.3511093E4,1.6318297E4,2.661447E3,8.507791E3,1.8335205E4,1.5149923E4,6.3000757E3,3.2854E3,2.4187998E3,1.4336034E3],"tree_param":{"num_deleted":"0","num_feature":"14","num_nodes":"31","size_leaf_vector":"1"}},{"base_weights":[4.2539233E-4,-9.284497E-2,1.9078884E-1,-1.8032733E-1,-1.9649237E-2,1.4989424E-1,4.5544592E-1,-2.8721267E-1,-1.5155979E-1,-6.025992E-2,1.5529469E-2,1.0842365E-1,2.6916254E-1,3.7855834E-1,7E-1,-1.8124526E-2,-1.3223948E-2,-9.993672E-3,-6.5995636E-3,-3.0761177E-3,3.5E-2,2.6121013E-5,7.84549E-3,3.3590905E-3,7.1883365E-3,1.1197793E-2,1.7240167E-2,1.6083902E-2,2.7717164E-2,1.576214E-2,3.5E-2],"categories":[],"categories_nodes":[],"categories_segments":[],"categories_sizes":[],"default_left":[0,0,0,0,0,0,0,0,0,0,0,0,0,0,0,0,0,0,0,0,0,0,0,0,0,0,0,0,0,0,0],"id":16,"left_children":[1,3,5,7,9,11,13,15,17,19,21,23,25,27,29,-1,-1,-1,-1,-1,-1,-1,-1,-1,-1,-1,-1,-1,-1,-1,-1],"loss_changes":[2.7890881E3,6.750911E2,5.589387E2,1.4758838E2,8.201088E1,2.21258E2,1.4818506E2,1.7234436E1,3.5728455E1,2.8399498E1,6.526479E1,4.8379944E1,3.9316284E1,5.4084473E1,4.314789E1,0E0,0E0,0E0,0E0,0E0,0E0,0E0,0E0,0E0,0E0,0E0,0E0,0E0,0E0,0E0,0E0],"parents":[2147483647,0,0,1,1,2,2,3,3,4,4,5,5,6,6,7,7,8,8,9,9,10,10,11,11,12,12,13,13,14,14],"right_children":[2,4,6,8,10,12,14,16,18,20,22,24,26,28,30,-1,-1,-1,-1,-1,-1,-1,-1,-1,-1,-1,-1,-1,-1,-1,-1],"split_conditions":[1.340646E2,-8.233491E1,2.875E0,-3.2330783E2,1.942936E1,3.4579108E2,4.625E0,-5.231134E2,-2.2094664E2,6E0,2.25E0,4E0,4.7733197E2,5.229567E2,1.3698214E3,-1.8124526E-2,-1.3223948E-2,-9.993672E-3,-6.5995636E-3,-3.0761177E-3,3.5E-2,2.6121013E-5,7.84549E-3,3.3590905E-3,7.1883365E-3,1.1197793E-2,1.7240167E-2,1.6083902E-2,2.7717164E-2,1.576214E-2,3.5E-2],"split_indices":[2,2,10,2,2,2,10,2,2,10,10,12,2,2,0,0,0,0,0,0,0,0,0,0,0,0,0,0,0,0,0],"split_type":[0,0,0,0,0,0,0,0,0,0,0,0,0,0,0,0,0,0,0,0,0,0,0,0,0,0,0,0,0,0,0],"sum_hessian":[1.5708112E5,1.0542713E5,5.1653992E4,4.8025227E4,5.7401906E4,4.474341E4,6.910581E3,1.018077E4,3.7844457E4,2.6643236E4,3.0758668E4,3.3202457E4,1.1540955E4,5.4428125E3,1.4677686E3,2.354491E3,7.826279E3,1.0904181E4,2.6940275E4,2.6605627E4,3.7608772E1,2.780886E4,2.9498096E3,1.5325238E4,1.7877217E4,7.228667E3,4.312288E3,4.11647E3,1.3263425E3,2.9608426E2,1.1716843E3],"tree_param":{"num_deleted":"0","num_feature":"14","num_nodes":"31","size_leaf_vector":"1"}},{"base_weights":[1.2600831E-4,-1.20695435E-1,1.3874505E-1,-2.1006283E-1,-6.7879006E-2,8.719358E-2,3.0623567E-1,-2.9623297E-1,-1.776064E-1,-1.06801555E-1,-4.0759243E-2,6.7887865E-2,2.4779682E-1,2.68638E-1,6.4842314E-1,-1.0498616E-2,-1.5665978E-2,-6.5083327E-3,-9.671438E-3,-5.4276804E-3,4.3108254E-3,-2.5274064E-3,2.9376438E-3,1.5931195E-3,5.803551E-3,1.10572E-2,2.9990211E-2,1.1599034E-2,1.8551074E-2,1.0661472E-2,3.4646843E-2],"categories":[],"categories_nodes":[],"categories_segments":[],"categories_sizes":[],"default_left":[0,0,0,0,0,0,0,0,0,0,0,0,0,0,0,0,0,0,0,0,0,0,0,0,0,0,0,0,0,0,0],"id":17,"left_children":[1,3,5,7,9,11,13,15,17,19,21,23,25,27,29,-1,-1,-1,-1,-1,-1,-1,-1,-1,-1,-1,-1,-1,-1,-1,-1],"loss_changes":[2.6256606E3,3.953424E2,6.303369E2,8.6914795E1,5.5568558E1,1.7306851E2,2.2070422E2,1.2411377E1,1.6918274E1,7.3300476E0,3.0236317E1,8.650795E1,5.593463E1,5.7942383E1,3.2628113E1,0E0,0E0,0E0,0E0,0E0,0E0,0E0,0E0,0E0,0E0,0E0,0E0,0E0,0E0,0E0,0E0],"parents":[2147483647,0,0,1,1,2,2,3,3,4,4,5,5,6,6,7,7,8,8,9,9,10,10,11,11,12,12,13,13,14,14],"right_children":[2,4,6,8,10,12,14,16,18,20,22,24,26,28,30,-1,-1,-1,-1,-1,-1,-1,-1,-1,-1,-1,-1,-1,-1,-1,-1],"split_conditions":[5.4399544E1,-1.5900206E2,3.3020358E2,-3.4579834E2,-6.1302147E1,2.5E0,3.875E0,2E0,2E0,3.375E0,2.125E0,1.7723369E2,5.375E0,5.229567E2,3E1,-1.0498616E-2,-1.5665978E-2,-6.5083327E-3,-9.671438E-3,-5.4276804E-3,4.3108254E-3,-2.5274064E-3,2.9376438E-3,1.5931195E-3,5.803551E-3,1.10572E-2,2.9990211E-2,1.1599034E-2,1.8551074E-2,1.0661472E-2,3.4646843E-2],"split_indices":[2,2,2,2,2,10,10,11,11,10,10,2,10,2,13,0,0,0,0,0,0,0,0,0,0,0,0,0,0,0,0],"split_type":[0,0,0,0,0,0,0,0,0,0,0,0,0,0,0,0,0,0,0,0,0,0,0,0,0,0,0,0,0,0,0],"sum_hessian":[1.5676912E5,8.3761875E4,7.300725E4,3.1112463E4,5.2649414E4,5.5827344E4,1.7179904E4,8.507975E3,2.2604488E4,2.1617662E4,3.1031752E4,4.9839152E4,5.988194E3,1.5482359E4,1.6975448E3,1.4110314E3,7.096943E3,5.6581733E3,1.6946314E4,2.1424066E4,1.9359508E2,2.8253477E4,2.7782756E3,2.8519258E4,2.1319895E4,5.569729E3,4.1846478E2,1.1405331E4,4.0770288E3,1.5859566E2,1.5389492E3],"tree_param":{"num_deleted":"0","num_feature":"14","num_nodes":"31","size_leaf_vector":"1"}},{"base_weights":[1.9379077E-3,1.8645364E-1,-4.3458685E-2,1.2047095E-1,3.6251163E-1,-1.4245574E-1,3.75193E-3,-2.205564E-2,1.8911944E-1,1.3148504E-1,4.4164413E-1,-8.9549005E-2,-2.109413E-1,8.232454E-2,-4.0067654E-2,6.7770616E-3,-2.9370422E-3,3.3995428E-3,1.1417553E-2,3.9325976E-3,1.8188464E-2,1.9254034E-2,3.5E-2,-1.1466364E-2,-3.0209085E-3,-1.5298853E-2,-8.974555E-3,2.3645016E-3,7.4830153E-3,-4.7632866E-3,7.08574E-4],"categories":[],"categories_nodes":[],"categories_segments":[],"categories_sizes":[],"default_left":[0,0,0,0,0,0,0,0,0,0,0,0,0,0,0,0,0,0,0,0,0,0,0,0,0,0,0,0,0,0,0],"id":18,"left_children":[1,3,5,7,9,11,13,15,17,19,21,23,25,27,29,-1,-1,-1,-1,-1,-1,-1,-1,-1,-1,-1,-1,-1,-1,-1,-1],"loss_changes":[1.3201134E3,3.6140686E2,5.911377E2,2.21505E2,1.5495203E2,1.479433E2,2.9487442E2,4.2573112E1,7.257666E1,2.6536152E1,1.2819861E2,9.3806656E1,5.3087463E1,7.232164E1,1.6461142E2,0E0,0E0,0E0,0E0,0E0,0E0,0E0,0E0,0E0,0E0,0E0,0E0,0E0,0E0,0E0,0E0],"parents":[2147483647,0,0,1,1,2,2,3,3,4,4,5,5,6,6,7,7,8,8,9,9,10,10,11,11,12,12,13,13,14,14],"right_children":[2,4,6,8,10,12,14,16,18,20,22,24,26,28,30,-1,-1,-1,-1,-1,-1,-1,-1,-1,-1,-1,-1,-1,-1,-1,-1],"split_conditions":[1.3807704E3,2.875E0,1.5487128E3,1.387619E3,1.3150868E3,1.5900507E3,1.6152699E3,1.1010984E3,3E1,5E0,5.25E0,1.2943953E3,1.3573573E3,1.7404135E3,1.7615581E3,6.7770616E-3,-2.9370422E-3,3.3995428E-3,1.1417553E-2,3.9325976E-3,1.8188464E-2,1.9254034E-2,3.5E-2,-1.1466364E-2,-3.0209085E-3,-1.5298853E-2,-8.974555E-3,2.3645016E-3,7.4830153E-3,-4.7632866E-3,7.08574E-4],"split_indices":[1,10,0,0,0,1,1,1,13,10,10,0,0,0,0,0,0,0,0,0,0,0,0,0,0,0,0,0,0,0,0],"split_type":[0,0,0,0,0,0,0,0,0,0,0,0,0,0,0,0,0,0,0,0,0,0,0,0,0,0,0,0,0,0,0],"sum_hessian":[1.5759545E5,3.1116273E4,1.2647919E5,2.263612E4,8.480154E3,4.0838965E4,8.564022E4,7.3589585E3,1.5277161E4,2.1649438E3,6.315211E3,2.3042611E4,1.7796354E4,3.0660793E4,5.497943E4,1.3885336E3,5.970425E3,3.7388472E3,1.1538313E4,1.7659542E3,3.989895E2,5.55225E3,7.629609E2,3.9716626E3,1.9070947E4,4.4206475E3,1.3375706E4,2.0169889E4,1.0490904E4,2.7248086E4,2.7731344E4],"tree_param":{"num_deleted":"0","num_feature":"14","num_nodes":"31","size_leaf_vector":"1"}},{"base_weights":[2.039887E-4,1.7567922E-1,-4.3723337E-2,1.2189528E-1,3.6497432E-1,-1.4004544E-2,-1.4244859E-1,1.9958924E-1,2.5836756E-2,3.1711343E-1,7E-1,5.796595E-2,-5.1725544E-2,-1.8615071E-1,-5.9798807E-2,8.212465E-3,1.5549593E-2,-1.9080917E-3,4.9249395E-3,1.2181859E-2,2.6575107E-2,3.5E-2,1.9508997E-2,1.3409067E-3,5.194402E-3,-4.538409E-3,-5.665215E-4,-1.3084404E-2,-7.823165E-3,-5.7619545E-3,1.3028438E-3],"categories":[],"categories_nodes":[],"categories_segments":[],"categories_sizes":[],"default_left":[0,0,0,0,0,0,0,0,0,0,0,0,0,0,0,0,0,0,0,0,0,0,0,0,0,0,0,0,0,0,0],"id":19,"left_children":[1,3,5,7,9,11,13,15,17,19,21,23,25,27,29,-1,-1,-1,-1,-1,-1,-1,-1,-1,-1,-1,-1,-1,-1,-1,-1],"loss_changes":[1.2095145E3,3.1976056E2,3.6820465E2,1.8259854E2,1.2659979E2,2.6188257E2,1.0485791E2,5.3152283E1,5.0896545E1,9.727203E1,1.1900482E1,4.7443825E1,9.981749E1,4.25094E1,4.782399E1,0E0,0E0,0E0,0E0,0E0,0E0,0E0,0E0,0E0,0E0,0E0,0E0,0E0,0E0,0E0,0E0],"parents":[2147483647,0,0,1,1,2,2,3,3,4,4,5,5,6,6,7,7,8,8,9,9,10,10,11,11,12,12,13,13,14,14],"right_children":[2,4,6,8,10,12,14,16,18,20,22,24,26,28,30,-1,-1,-1,-1,-1,-1,-1,-1,-1,-1,-1,-1,-1,-1,-1,-1],"split_conditions":[1.3807704E3,3.125E0,6E0,6E0,5.75E0,1.5900507E3,5E0,1.875E0,1.125E0,1.875E0,3.125E0,5E0,1.5E0,7.5E-1,1.375E0,8.212465E-3,1.5549593E-2,-1.9080917E-3,4.9249395E-3,1.2181859E-2,2.6575107E-2,3.5E-2,1.9508997E-2,1.3409067E-3,5.194402E-3,-4.538409E-3,-5.665215E-4,-1.3084404E-2,-7.823165E-3,-5.7619545E-3,1.3028438E-3],"split_indices":[1,10,11,11,10,1,12,6,6,6,7,12,6,6,6,0,0,0,0,0,0,0,0,0,0,0,0,0,0,0,0],"split_type":[0,0,0,0,0,0,0,0,0,0,0,0,0,0,0,0,0,0,0,0,0,0,0,0,0,0,0,0,0,0,0],"sum_hessian":[1.5690958E5,3.1414195E4,1.2549538E5,2.4466016E4,6.948178E3,9.646059E4,2.903479E4,1.35247705E4,1.0941246E4,6.189472E3,7.5870605E2,3.3170754E4,6.328984E4,1.8990707E4,1.0044082E4,1.0271362E4,3.253408E3,5.817931E3,5.1233145E3,4.6128193E3,1.5766528E3,6.265181E2,1.321879E2,1.9766676E4,1.3404079E4,3.218243E4,3.110741E4,5.3535044E3,1.3637202E4,6.102671E3,3.9414114E3],"tree_param":{"num_deleted":"0","num_feature":"14","num_nodes":"31","size_leaf_vector":"1"}},{"base_weights":[-7.383618E-5,-1.14389956E-1,1.2829012E-1,-2.1814595E-1,-7.195273E-2,7.79696E-2,2.7377215E-1,-3.0140993E-1,-1.845008E-1,-1.1579058E-1,-4.5625586E-2,6.090496E-2,2.190934E-1,2.4163315E-1,5.789464E-1,-1.0597002E-2,-1.5901288E-2,-6.7722625E-3,-1.0015146E-2,-4.1417023E-3,-6.371969E-3,-2.3332434E-3,3.424736E-2,1.4396543E-3,5.2695754E-3,2.4398488E-3,1.3431015E-2,1.1078308E-2,2.1218024E-2,2.429186E-2,3.5E-2],"categories":[],"categories_nodes":[],"categories_segments":[],"categories_sizes":[],"default_left":[0,0,0,0,0,0,0,0,0,0,0,0,0,0,0,0,0,0,0,0,0,0,0,0,0,0,0,0,0,0,0],"id":20,"left_children":[1,3,5,7,9,11,13,15,17,19,21,23,25,27,29,-1,-1,-1,-1,-1,-1,-1,-1,-1,-1,-1,-1,-1,-1,-1,-1],"loss_changes":[2.3049128E3,3.6579333E2,5.416234E2,6.744946E1,6.80466E1,1.3237335E2,1.8621472E2,1.0178345E1,1.3264343E1,8.472687E0,2.8039925E1,7.006435E1,4.9989105E1,6.2903748E1,3.7993042E1,0E0,0E0,0E0,0E0,0E0,0E0,0E0,0E0,0E0,0E0,0E0,0E0,0E0,0E0,0E0,0E0],"parents":[2147483647,0,0,1,1,2,2,3,3,4,4,5,5,6,6,7,7,8,8,9,9,10,10,11,11,12,12,13,13,14,14],"right_children":[2,4,6,8,10,12,14,16,18,20,22,24,26,28,30,-1,-1,-1,-1,-1,-1,-1,-1,-1,-1,-1,-1,-1,-1,-1,-1],"split_conditions":[5.4399544E1,-1.9649098E2,3.1735248E2,-3.7143118E2,-8.4536156E1,2.5E0,3.875E0,2E0,2E0,2E0,5.875E0,1.7723369E2,3E1,6.4074146E2,5.75E0,-1.0597002E-2,-1.5901288E-2,-6.7722625E-3,-1.0015146E-2,-4.1417023E-3,-6.371969E-3,-2.3332434E-3,3.424736E-2,1.4396543E-3,5.2695754E-3,2.4398488E-3,1.3431015E-2,1.1078308E-2,2.1218024E-2,2.429186E-2,3.5E-2],"split_indices":[2,2,2,2,2,10,10,11,11,11,10,2,13,2,10,0,0,0,0,0,0,0,0,0,0,0,0,0,0,0,0],"split_type":[0,0,0,0,0,0,0,0,0,0,0,0,0,0,0,0,0,0,0,0,0,0,0,0,0,0,0,0,0,0,0],"sum_hessian":[1.5706989E5,8.308115E4,7.3988734E4,2.4114537E4,5.896661E4,5.4976195E4,1.9012541E4,6.935315E3,1.717922E4,2.2122764E4,3.6843848E4,4.904817E4,5.928026E3,1.720428E4,1.808261E3,1.090564E3,5.844751E3,4.1902603E3,1.2988961E4,5.7816514E3,1.6341112E4,3.679338E4,5.046844E1,2.848793E4,2.0560242E4,1.3364982E3,4.591528E3,1.5505861E4,1.6984185E3,1.4260955E3,3.821655E2],"tree_param":{"num_deleted":"0","num_feature":"14","num_nodes":"31","size_leaf_vector":"1"}},{"base_weights":[9.4152265E-4,-3.4700412E-2,1.9431397E-1,-1.1661056E-1,9.764432E-3,1.3668992E-1,3.619316E-1,-4.9696464E-2,-1.9254723E-1,8.253636E-2,-4.7146585E-2,2.1317497E-2,1.8018715E-1,2.1894678E-1,5.082752E-1,-7.6085175E-3,-6.747079E-4,-1.4641212E-2,-8.1879785E-3,2.1790094E-3,7.210709E-3,-4.3498436E-3,1.3990893E-3,-5.506876E-3,4.627678E-3,-3.257775E-4,1.093191E-2,9.73093E-3,3.2935172E-2,2.0986553E-2,3.5E-2],"categories":[],"categories_nodes":[],"categories_segments":[],"categories_sizes":[],"default_left":[0,0,0,0,0,0,0,0,0,0,0,0,0,0,0,0,0,0,0,0,0,0,0,0,0,0,0,0,0,0,0],"id":21,"left_children":[1,3,5,7,9,11,13,15,17,19,21,23,25,27,29,-1,-1,-1,-1,-1,-1,-1,-1,-1,-1,-1,-1,-1,-1,-1,-1],"loss_changes":[1.0837638E3,4.8357886E2,2.3627594E2,2.37357E2,3.564236E2,9.140115E1,1.3075952E2,9.213278E1,6.3072144E1,9.0732605E1,1.4459027E2,4.674224E1,9.496185E1,3.365416E1,8.1158325E1,0E0,0E0,0E0,0E0,0E0,0E0,0E0,0E0,0E0,0E0,0E0,0E0,0E0,0E0,0E0,0E0],"parents":[2147483647,0,0,1,1,2,2,3,3,4,4,5,5,6,6,7,7,8,8,9,9,10,10,11,11,12,12,13,13,14,14],"right_children":[2,4,6,8,10,12,14,16,18,20,22,24,26,28,30,-1,-1,-1,-1,-1,-1,-1,-1,-1,-1,-1,-1,-1,-1,-1,-1],"split_conditions":[2.125E0,1.5487128E3,3.375E0,1.5336567E3,1.6436882E3,5E0,1.4702518E3,1.3150868E3,1.3432959E3,5E0,1.8279893E3,1.5589065E3,1.2812343E3,7.25E0,5.125E0,-7.6085175E-3,-6.747079E-4,-1.4641212E-2,-8.1879785E-3,2.1790094E-3,7.210709E-3,-4.3498436E-3,1.3990893E-3,-5.506876E-3,4.627678E-3,-3.257775E-4,1.093191E-2,9.73093E-3,3.2935172E-2,2.0986553E-2,3.5E-2],"split_indices":[10,0,10,1,1,12,0,0,0,12,0,0,0,10,10,0,0,0,0,0,0,0,0,0,0,0,0,0,0,0,0],"split_type":[0,0,0,0,0,0,0,0,0,0,0,0,0,0,0,0,0,0,0,0,0,0,0,0,0,0,0,0,0,0,0],"sum_hessian":[1.5724177E5,1.3277133E5,2.4470443E4,4.6714242E4,8.605708E4,1.8212818E4,6.257624E3,2.4834139E4,2.1880105E4,3.7765527E4,4.8291555E4,4.98734E3,1.3225479E4,3.1676597E3,3.0899646E3,6.4814385E3,1.83527E4,4.8762295E3,1.7003875E4,2.3148299E4,1.4617227E4,3.1554049E4,1.6737504E4,1.7524237E3,3.2349163E3,2.2588887E3,1.096659E4,3.0043389E3,1.6332072E2,2.4905815E3,5.993832E2],"tree_param":{"num_deleted":"0","num_feature":"14","num_nodes":"31","size_leaf_vector":"1"}},{"base_weights":[-7.770065E-5,-1.001091E-1,1.3260844E-1,-1.9304617E-1,-5.3147957E-2,8.8409305E-2,2.681504E-1,-2.786544E-1,-1.6124351E-1,-8.07808E-2,-1.11591825E-2,6.797887E-2,2.1058726E-1,2.2529177E-1,4.4611034E-1,-9.360249E-3,-1.484413E-2,-5.777309E-3,-8.834275E-3,-4.6218154E-3,-2.3109252E-3,-8.7533065E-4,8.719453E-3,1.67246E-3,5.240675E-3,9.649772E-3,3.259204E-2,9.604382E-3,1.5655449E-2,1.9392127E-2,3.5E-2],"categories":[],"categories_nodes":[],"categories_segments":[],"categories_sizes":[],"default_left":[0,0,0,0,0,0,0,0,0,0,0,0,0,0,0,0,0,0,0,0,0,0,0,0,0,0,0,0,0,0,0],"id":22,"left_children":[1,3,5,7,9,11,13,15,17,19,21,23,25,27,29,-1,-1,-1,-1,-1,-1,-1,-1,-1,-1,-1,-1,-1,-1,-1,-1],"loss_changes":[2.083674E3,3.9063306E2,4.0421436E2,8.171106E1,6.899361E1,1.2699872E2,1.2635303E2,1.34505005E1,1.5421509E1,1.4438553E1,2.7805809E1,5.544954E1,5.6333405E1,3.8883484E1,5.2565613E1,0E0,0E0,0E0,0E0,0E0,0E0,0E0,0E0,0E0,0E0,0E0,0E0,0E0,0E0,0E0,0E0],"parents":[2147483647,0,0,1,1,2,2,3,3,4,4,5,5,6,6,7,7,8,8,9,9,10,10,11,11,12,12,13,13,14,14],"right_children":[2,4,6,8,10,12,14,16,18,20,22,24,26,28,30,-1,-1,-1,-1,-1,-1,-1,-1,-1,-1,-1,-1,-1,-1,-1,-1],"split_conditions":[8.232947E1,-1.5900206E2,3.4579108E2,-3.4579834E2,-4.515029E0,2.375E0,3.25E0,2E0,2E0,5E0,2.875E0,1.8321526E2,6E0,4E0,5E-1,-9.360249E-3,-1.484413E-2,-5.777309E-3,-8.834275E-3,-4.6218154E-3,-2.3109252E-3,-8.7533065E-4,8.719453E-3,1.67246E-3,5.240675E-3,9.649772E-3,3.259204E-2,9.604382E-3,1.5655449E-2,1.9392127E-2,3.5E-2],"split_indices":[2,2,2,2,2,10,10,11,11,12,10,2,10,11,8,0,0,0,0,0,0,0,0,0,0,0,0,0,0,0,0],"split_type":[0,0,0,0,0,0,0,0,0,0,0,0,0,0,0,0,0,0,0,0,0,0,0,0,0,0,0,0,0,0,0],"sum_hessian":[1.569845E5,8.950651E4,6.7478E4,3.0043525E4,5.946298E4,5.0887344E4,1.6590652E4,8.133574E3,2.1909951E4,3.5860992E4,2.360199E4,4.359976E4,7.287583E3,1.33742295E4,3.2164229E3,1.3555303E3,6.778044E3,5.5380957E3,1.6371855E4,2.6814826E4,9.046165E3,2.2823045E4,7.7894366E2,2.2505955E4,2.1093807E4,7.010947E3,2.766363E2,9.709422E3,3.6648076E3,2.67656E3,5.398627E2],"tree_param":{"num_deleted":"0","num_feature":"14","num_nodes":"31","size_leaf_vector":"1"}},{"base_weights":[1.0524313E-3,-1.0661687E-1,1.1773383E-1,-2.2097851E-1,-6.985383E-2,7.981747E-2,2.699785E-1,-2.953984E-1,-1.8329668E-1,-1.05626576E-1,-3.464284E-2,6.1061583E-2,1.9440226E-1,2.3097624E-1,4.6592078E-1,-9.947667E-3,-1.5706532E-2,-6.4680404E-3,-1.0002166E-2,-6.5554464E-3,-4.2852378E-3,-1.8071033E-3,3.1684585E-2,1.1717798E-3,4.89124E-3,8.9747105E-3,3.2591578E-2,1.0294805E-2,1.6854025E-2,2.0250542E-2,3.5E-2],"categories":[],"categories_nodes":[],"categories_segments":[],"categories_sizes":[],"default_left":[0,0,0,0,0,0,0,0,0,0,0,0,0,0,0,0,0,0,0,0,0,0,0,0,0,0,0,0,0,0,0],"id":23,"left_children":[1,3,5,7,9,11,13,15,17,19,21,23,25,27,29,-1,-1,-1,-1,-1,-1,-1,-1,-1,-1,-1,-1,-1,-1,-1,-1],"loss_changes":[1.9744836E3,3.4362695E2,4.3536157E2,5.5650085E1,7.790933E1,1.2976288E2,1.1471216E2,1.1943909E1,1.1875671E1,1.5554169E1,3.1284618E1,7.178401E1,5.7687286E1,3.324756E1,5.131549E1,0E0,0E0,0E0,0E0,0E0,0E0,0E0,0E0,0E0,0E0,0E0,0E0,0E0,0E0,0E0,0E0],"parents":[2147483647,0,0,1,1,2,2,3,3,4,4,5,5,6,6,7,7,8,8,9,9,10,10,11,11,12,12,13,13,14,14],"right_children":[2,4,6,8,10,12,14,16,18,20,22,24,26,28,30,-1,-1,-1,-1,-1,-1,-1,-1,-1,-1,-1,-1,-1,-1,-1,-1],"split_conditions":[5.4399544E1,-2.2094664E2,3.6296295E2,-3.7143118E2,-6.1302147E1,2.375E0,3.5E0,2E0,2E0,-1.3931935E2,5.875E0,1.647409E2,6.125E0,5.8889655E2,5.875E0,-9.947667E-3,-1.5706532E-2,-6.4680404E-3,-1.0002166E-2,-6.5554464E-3,-4.2852378E-3,-1.8071033E-3,3.1684585E-2,1.1717798E-3,4.89124E-3,8.9747105E-3,3.2591578E-2,1.0294805E-2,1.6854025E-2,2.0250542E-2,3.5E-2],"split_indices":[2,2,2,2,2,10,10,11,11,2,10,2,10,2,10,0,0,0,0,0,0,0,0,0,0,0,0,0,0,0,0],"split_type":[0,0,0,0,0,0,0,0,0,0,0,0,0,0,0,0,0,0,0,0,0,0,0,0,0,0,0,0,0,0,0],"sum_hessian":[1.5716252E5,8.173793E4,7.5424586E4,1.9881375E4,6.1856555E4,6.038805E4,1.5036531E4,6.6783213E3,1.3203054E4,3.0681527E4,3.1175027E4,5.189642E4,8.491631E3,1.2544008E4,2.4925227E3,1.0899297E3,5.5883916E3,3.132304E3,1.0070749E4,1.3457127E4,1.72244E4,3.1107139E4,6.788833E1,2.5648879E4,2.6247543E4,8.2263125E3,2.6531857E2,1.0150572E4,2.393436E3,2.1696965E3,3.2282608E2],"tree_param":{"num_deleted":"0","num_feature":"14","num_nodes":"31","size_leaf_vector":"1"}},{"base_weights":[6.700127E-4,-1.04159564E-1,1.1652346E-1,-2.083517E-1,-6.327426E-2,7.8693E-2,2.644883E-1,-2.8106964E-1,-1.7028593E-1,-9.91942E-2,-3.3074234E-2,3.1399187E-2,1.1615433E-1,3.5792175E-1,2.1737614E-1,-1.724559E-2,-1.2865491E-2,-6.268465E-3,-9.254712E-3,-5.470835E-3,-3.19501E-3,-2.553536E-3,4.248528E-4,3.6441057E-4,2.914801E-3,3.3003844E-3,8.3766645E-3,7.409127E-3,1.973749E-2,1.0017198E-2,1.9955589E-2],"categories":[],"categories_nodes":[],"categories_segments":[],"categories_sizes":[],"default_left":[0,0,0,0,0,0,0,0,0,0,0,0,0,0,0,0,0,0,0,0,0,0,0,0,0,0,0,0,0,0,0],"id":24,"left_children":[1,3,5,7,9,11,13,15,17,19,21,23,25,27,29,-1,-1,-1,-1,-1,-1,-1,-1,-1,-1,-1,-1,-1,-1,-1,-1],"loss_changes":[1.9107963E3,3.5182886E2,4.1830524E2,6.433435E1,6.4345245E1,1.0544803E2,6.682593E1,1.1949524E1,1.0119263E1,9.761383E0,2.4113384E1,1.706231E1,8.55509E1,3.925879E1,3.116809E1,0E0,0E0,0E0,0E0,0E0,0E0,0E0,0E0,0E0,0E0,0E0,0E0,0E0,0E0,0E0,0E0],"parents":[2147483647,0,0,1,1,2,2,3,3,4,4,5,5,6,6,7,7,8,8,9,9,10,10,11,11,12,12,13,13,14,14],"right_children":[2,4,6,8,10,12,14,16,18,20,22,24,26,28,30,-1,-1,-1,-1,-1,-1,-1,-1,-1,-1,-1,-1,-1,-1,-1,-1],"split_conditions":[5.8695328E1,-1.9649098E2,3.6296295E2,-3.4579834E2,-6.1302147E1,4E0,1.1720052E3,-5.231134E2,2E0,5E0,5E0,1.6772581E2,1.8659132E2,3E1,2.875E0,-1.724559E-2,-1.2865491E-2,-6.268465E-3,-9.254712E-3,-5.470835E-3,-3.19501E-3,-2.553536E-3,4.248528E-4,3.6441057E-4,2.914801E-3,3.3003844E-3,8.3766645E-3,7.409127E-3,1.973749E-2,1.0017198E-2,1.9955589E-2],"split_indices":[2,2,2,2,2,12,1,2,11,12,12,2,2,13,6,0,0,0,0,0,0,0,0,0,0,0,0,0,0,0,0],"split_type":[0,0,0,0,0,0,0,0,0,0,0,0,0,0,0,0,0,0,0,0,0,0,0,0,0,0,0,0,0,0,0],"sum_hessian":[1.5732964E5,8.25945E4,7.473513E4,2.3274234E4,5.9320266E4,5.952048E4,1.5214653E4,7.992746E3,1.5281489E4,2.7092197E4,3.2228066E4,2.6309365E4,3.3211117E4,5.095668E3,1.0118985E4,2.160495E3,5.832251E3,3.7936152E3,1.1487874E4,2.1004334E4,6.0878633E3,2.2491074E4,9.736992E3,1.3874484E4,1.2434881E4,1.6809432E4,1.6401686E4,7.626057E2,4.333062E3,9.255745E3,8.632403E2],"tree_param":{"num_deleted":"0","num_feature":"14","num_nodes":"31","size_leaf_vector":"1"}},{"base_weights":[1.2495681E-3,-1.0411329E-1,1.1303436E-1,-1.8972054E-1,-5.98952E-2,6.89938E-2,2.2876148E-1,-2.8327534E-1,-1.6160761E-1,-8.4003896E-2,-2.6637986E-2,5.8513343E-2,2.7005008E-1,2.0086335E-1,4.7212434E-1,-9.050889E-3,-1.4821117E-2,-5.720915E-3,-8.854487E-3,-5.227472E-3,-3.2044486E-3,-1.5449399E-3,1.0844123E-2,1.093445E-3,4.6828086E-3,1.247587E-2,3.5E-2,8.822302E-3,1.5144566E-2,2.14113E-2,3.5E-2],"categories":[],"categories_nodes":[],"categories_segments":[],"categories_sizes":[],"default_left":[0,0,0,0,0,0,0,0,0,0,0,0,0,0,0,0,0,0,0,0,0,0,0,0,0,0,0,0,0,0,0],"id":25,"left_children":[1,3,5,7,9,11,13,15,17,19,21,23,25,27,29,-1,-1,-1,-1,-1,-1,-1,-1,-1,-1,-1,-1,-1,-1,-1,-1],"loss_changes":[1.8557153E3,3.0700616E2,3.8960687E2,7.256378E1,4.288028E1,1.16660095E2,1.4288025E2,8.470276E0,1.5481689E1,1.267363E1,2.3339808E1,6.778189E1,3.6186188E1,4.7E1,2.9278076E1,0E0,0E0,0E0,0E0,0E0,0E0,0E0,0E0,0E0,0E0,0E0,0E0,0E0,0E0,0E0,0E0],"parents":[2147483647,0,0,1,1,2,2,3,3,4,4,5,5,6,6,7,7,8,8,9,9,10,10,11,11,12,12,13,13,14,14],"right_children":[2,4,6,8,10,12,14,16,18,20,22,24,26,28,30,-1,-1,-1,-1,-1,-1,-1,-1,-1,-1,-1,-1,-1,-1,-1,-1],"split_conditions":[5.4399544E1,-1.6772395E2,3.1073618E2,-3.7143118E2,-2.8003616E1,3.25E0,3.875E0,1E0,2E0,1.125E0,3.25E0,1.5633946E2,8.5E0,5.5340674E2,7.5E-1,-9.050889E-3,-1.4821117E-2,-5.720915E-3,-8.854487E-3,-5.227472E-3,-3.2044486E-3,-1.5449399E-3,1.0844123E-2,1.093445E-3,4.6828086E-3,1.247587E-2,3.5E-2,8.822302E-3,1.5144566E-2,2.14113E-2,3.5E-2],"split_indices":[2,2,2,2,2,10,10,11,11,10,9,2,10,2,8,0,0,0,0,0,0,0,0,0,0,0,0,0,0,0,0],"split_type":[0,0,0,0,0,0,0,0,0,0,0,0,0,0,0,0,0,0,0,0,0,0,0,0,0,0,0,0,0,0,0],"sum_hessian":[1.5755425E5,8.110695E4,7.64473E4,2.7622523E4,5.3484426E4,5.5376625E4,2.107067E4,6.378354E3,2.124417E4,3.1005197E4,2.2479229E4,5.2635477E4,2.7411465E3,1.8906908E4,2.1637605E3,7.299928E2,5.6483613E3,5.2522295E3,1.599194E4,1.525679E4,1.5748406E4,2.2094395E4,3.848334E2,2.5768826E4,2.6866652E4,2.6799272E3,6.121918E1,1.526028E4,3.6466284E3,1.9302787E3,2.3348187E2],"tree_param":{"num_deleted":"0","num_feature":"14","num_nodes":"31","size_leaf_vector":"1"}},{"base_weights":[-8.190505E-4,-1.0395275E-1,1.08132534E-1,-1.9683725E-1,-6.3147955E-2,5.3537183E-2,1.9709244E-1,-2.7415225E-1,-1.6203505E-1,-9.7224474E-2,-3.5270583E-2,4.825762E-2,4.034418E-1,1.6742818E-1,3.60989E-1,-1.6977703E-2,-1.2506286E-2,-6.0692965E-3,-8.786477E-3,-5.334496E-3,-3.2610693E-3,-2.2521955E-3,2.9555443E-3,1.1619319E-3,3.99021E-3,1.6882489E-2,3.5E-2,6.771618E-3,1.1776943E-2,1.3420194E-2,2.4862645E-2],"categories":[],"categories_nodes":[],"categories_segments":[],"categories_sizes":[],"default_left":[0,0,0,0,0,0,0,0,0,0,0,0,0,0,0,0,0,0,0,0,0,0,0,0,0,0,0,0,0,0,0],"id":26,"left_children":[1,3,5,7,9,11,13,15,17,19,21,23,25,27,29,-1,-1,-1,-1,-1,-1,-1,-1,-1,-1,-1,-1,-1,-1,-1,-1],"loss_changes":[1.7620735E3,3.053034E2,3.7034363E2,6.606897E1,5.316594E1,8.7263855E1,1.4087598E2,1.18186035E1,9.3984375E0,7.61528E0,2.840688E1,3.6743057E1,1.6271523E1,5.345819E1,5.578308E1,0E0,0E0,0E0,0E0,0E0,0E0,0E0,0E0,0E0,0E0,0E0,0E0,0E0,0E0,0E0,0E0],"parents":[2147483647,0,0,1,1,2,2,3,3,4,4,5,5,6,6,7,7,8,8,9,9,10,10,11,11,12,12,13,13,14,14],"right_children":[2,4,6,8,10,12,14,16,18,20,22,24,26,28,30,-1,-1,-1,-1,-1,-1,-1,-1,-1,-1,-1,-1,-1,-1,-1,-1],"split_conditions":[5.4399544E1,-1.8322968E2,2.574136E2,-3.4579834E2,-6.1302147E1,4.375E0,3.25E0,-5.231134E2,2E0,5E0,2.125E0,1.5633946E2,6.875E0,4.283175E2,1.75E0,-1.6977703E-2,-1.2506286E-2,-6.0692965E-3,-8.786477E-3,-5.334496E-3,-3.2610693E-3,-2.2521955E-3,2.9555443E-3,1.1619319E-3,3.99021E-3,1.6882489E-2,3.5E-2,6.771618E-3,1.1776943E-2,1.3420194E-2,2.4862645E-2],"split_indices":[2,2,2,2,2,10,10,2,11,12,10,2,10,2,6,0,0,0,0,0,0,0,0,0,0,0,0,0,0,0,0],"split_type":[0,0,0,0,0,0,0,0,0,0,0,0,0,0,0,0,0,0,0,0,0,0,0,0,0,0,0,0,0,0,0],"sum_hessian":[1.568118E5,8.0556766E4,7.625504E4,2.4585293E4,5.5971473E4,4.7256555E4,2.8998488E4,7.6272305E3,1.6958062E4,2.5183227E4,3.0788244E4,4.655636E4,7.001935E2,2.4557732E4,4.440756E3,2.0421354E3,5.585095E3,4.2783726E3,1.2679689E4,1.94314E4,5.7518267E3,2.7900188E4,2.8880562E3,2.5966395E4,2.0589967E4,5.9974066E2,1.0045281E2,1.671271E4,7.84502E3,2.6477017E3,1.793054E3],"tree_param":{"num_deleted":"0","num_feature":"14","num_nodes":"31","size_leaf_vector":"1"}},{"base_weights":[-4.5255636E-4,-1.0050994E-1,1.0411963E-1,-2.1026899E-1,-6.537475E-2,5.4701E-2,1.9185871E-1,-2.9583693E-1,-1.8089993E-1,-1.0352395E-1,-3.8925085E-2,2.2042051E-2,8.327847E-2,1.593407E-1,3.1737804E-1,-8.626608E-3,-1.57647E-2,-6.680455E-3,-9.803155E-3,-3.713843E-3,-5.7031196E-3,-2.8072444E-3,1.0130655E-4,2.4214042E-3,-3.4151736E-4,3.1600834E-3,7.0117502E-3,6.2296526E-3,1.1139659E-2,1.2429349E-2,2.3521362E-2],"categories":[],"categories_nodes":[],"categories_segments":[],"categories_sizes":[],"default_left":[0,0,0,0,0,0,0,0,0,0,0,0,0,0,0,0,0,0,0,0,0,0,0,0,0,0,0,0,0,0,0],"id":27,"left_children":[1,3,5,7,9,11,13,15,17,19,21,23,25,27,29,-1,-1,-1,-1,-1,-1,-1,-1,-1,-1,-1,-1,-1,-1,-1,-1],"loss_changes":[1.6438672E3,3.095946E2,3.3307233E2,4.8816956E1,6.136313E1,4.5863937E1,1.12871826E2,1.1818268E1,1.0344208E1,7.6582947E0,2.5331299E1,1.7475063E1,2.9953049E1,4.8422607E1,5.970569E1,0E0,0E0,0E0,0E0,0E0,0E0,0E0,0E0,0E0,0E0,0E0,0E0,0E0,0E0,0E0,0E0],"parents":[2147483647,0,0,1,1,2,2,3,3,4,4,5,5,6,6,7,7,8,8,9,9,10,10,11,11,12,12,13,13,14,14],"right_children":[2,4,6,8,10,12,14,16,18,20,22,24,26,28,30,-1,-1,-1,-1,-1,-1,-1,-1,-1,-1,-1,-1,-1,-1,-1,-1],"split_conditions":[5.4399544E1,-2.1698524E2,2.6697443E2,-4.0045706E2,-8.233491E1,4E0,5.229567E2,2E0,2E0,2E0,5E0,2E0,2.02795E2,4E0,4E0,-8.626608E-3,-1.57647E-2,-6.680455E-3,-9.803155E-3,-3.713843E-3,-5.7031196E-3,-2.8072444E-3,1.0130655E-4,2.4214042E-3,-3.4151736E-4,3.1600834E-3,7.0117502E-3,6.2296526E-3,1.1139659E-2,1.2429349E-2,2.3521362E-2],"split_indices":[2,2,2,2,2,12,2,11,11,11,12,11,2,11,11,0,0,0,0,0,0,0,0,0,0,0,0,0,0,0,0],"split_type":[0,0,0,0,0,0,0,0,0,0,0,0,0,0,0,0,0,0,0,0,0,0,0,0,0,0,0,0,0,0,0],"sum_hessian":[1.5710512E5,8.0285734E4,7.68194E4,1.9465955E4,6.0819777E4,4.914305E4,2.7676348E4,4.969364E3,1.4496591E4,2.4899947E4,3.5919832E4,2.2935457E4,2.6207592E4,2.1985227E4,5.6911226E3,6.799658E2,4.289398E3,3.524383E3,1.0972208E4,6.5997935E3,1.8300154E4,2.5286309E4,1.0633522E4,1.1983014E4,1.0952443E4,1.9380361E4,6.827231E3,1.4209688E4,7.7755376E3,3.9299675E3,1.7611552E3],"tree_param":{"num_deleted":"0","num_feature":"14","num_nodes":"31","size_leaf_vector":"1"}},{"base_weights":[1.4146129E-3,-9.588182E-2,1.0457307E-1,-1.8111502E-1,-5.051968E-2,8.04392E-2,2.8006956E-1,-2.6135004E-1,-1.474931E-1,-6.6830955E-2,-8.053228E-3,4.3614402E-2,1.4903246E-1,2.517543E-1,6.416998E-1,-1.5089097E-2,-1.05953645E-2,-8.664116E-3,-6.4107836E-3,-5.4348945E-3,-2.6942468E-3,-5.7176145E-4,1.9297674E-2,1.0689589E-3,3.5564539E-3,6.3796462E-3,1.1488776E-2,1.0133668E-2,1.8722909E-2,1.1695233E-2,3.5E-2],"categories":[],"categories_nodes":[],"categories_segments":[],"categories_sizes":[],"default_left":[0,0,0,0,0,0,0,0,0,0,0,0,0,0,0,0,0,0,0,0,0,0,0,0,0,0,0,0,0,0,0],"id":28,"left_children":[1,3,5,7,9,11,13,15,17,19,21,23,25,27,29,-1,-1,-1,-1,-1,-1,-1,-1,-1,-1,-1,-1,-1,-1,-1,-1],"loss_changes":[1.5759424E3,3.123947E2,3.227406E2,7.5635376E1,3.653015E1,1.6922592E2,9.40105E1,1.6434937E1,9.790588E0,2.064061E1,1.9514027E1,2.6670418E1,4.045581E1,5.132141E1,3.9276306E1,0E0,0E0,0E0,0E0,0E0,0E0,0E0,0E0,0E0,0E0,0E0,0E0,0E0,0E0,0E0,0E0],"parents":[2147483647,0,0,1,1,2,2,3,3,4,4,5,5,6,6,7,7,8,8,9,9,10,10,11,11,12,12,13,13,14,14],"right_children":[2,4,6,8,10,12,14,16,18,20,22,24,26,28,30,-1,-1,-1,-1,-1,-1,-1,-1,-1,-1,-1,-1,-1,-1,-1,-1],"split_conditions":[5.8695328E1,-1.5900206E2,2.875E0,-3.3024463E2,5E0,2.574136E2,6E0,1.3573573E3,-2.3551955E2,-1.01196625E2,5.25E0,1.5633946E2,4.7733197E2,1.875E0,1.3698214E3,-1.5089097E-2,-1.05953645E-2,-8.664116E-3,-6.4107836E-3,-5.4348945E-3,-2.6942468E-3,-5.7176145E-4,1.9297674E-2,1.0689589E-3,3.5564539E-3,6.3796462E-3,1.1488776E-2,1.0133668E-2,1.8722909E-2,1.1695233E-2,3.5E-2],"split_indices":[2,2,10,2,12,2,10,0,2,2,10,2,2,6,0,0,0,0,0,0,0,0,0,0,0,0,0,0,0,0,0],"split_type":[0,0,0,0,0,0,0,0,0,0,0,0,0,0,0,0,0,0,0,0,0,0,0,0,0,0,0,0,0,0,0],"sum_hessian":[1.5701006E5,8.0800875E4,7.620919E4,2.8064012E4,5.273686E4,6.699861E4,9.210577E3,8.283293E3,1.9780719E4,3.8101145E4,1.4635715E4,4.359668E4,2.340193E4,8.544912E3,6.6566504E2,4.5512744E3,3.732019E3,8.454442E3,1.1326276E4,8.995438E3,2.9105707E4,1.4513082E4,1.22632675E2,2.411354E4,1.9483139E4,1.849591E4,4.9060195E3,6.1073174E3,2.4375947E3,1.9374966E2,4.7191534E2],"tree_param":{"num_deleted":"0","num_feature":"14","num_nodes":"31","size_leaf_vector":"1"}},{"base_weights":[7.5070217E-4,-1.0752703E-1,9.256124E-2,-2.0694646E-1,-7.2628476E-2,6.2091235E-2,2.2088742E-1,-2.9189113E-1,-1.7726061E-1,-1.0262283E-1,-4.607964E-2,3.4063216E-2,1.4067583E-1,2.0078479E-1,5.5616015E-1,-9.397372E-3,-1.54564995E-2,-6.4481646E-3,-9.61612E-3,-6.0122465E-3,-4.3190564E-3,-2.4641731E-3,3.7838977E-3,4.835499E-4,2.9850812E-3,5.8188112E-3,9.810018E-3,2.908814E-3,1.1860787E-2,1.0700277E-2,3.4362774E-2],"categories":[],"categories_nodes":[],"categories_segments":[],"categories_sizes":[],"default_left":[0,0,0,0,0,0,0,0,0,0,0,0,0,0,0,0,0,0,0,0,0,0,0,0,0,0,0,0,0,0,0],"id":29,"left_children":[1,3,5,7,9,11,13,15,17,19,21,23,25,27,29,-1,-1,-1,-1,-1,-1,-1,-1,-1,-1,-1,-1,-1,-1,-1,-1],"loss_changes":[1.5662244E3,2.507956E2,3.3334332E2,4.725824E1,4.2603363E1,1.517521E2,1.1003296E2,8.593842E0,1.0078644E1,7.170105E0,1.1082222E1,3.1762192E1,2.4393433E1,8.017084E1,4.116263E1,0E0,0E0,0E0,0E0,0E0,0E0,0E0,0E0,0E0,0E0,0E0,0E0,0E0,0E0,0E0,0E0],"parents":[2147483647,0,0,1,1,2,2,3,3,4,4,5,5,6,6,7,7,8,8,9,9,10,10,11,11,12,12,13,13,14,14],"right_children":[2,4,6,8,10,12,14,16,18,20,22,24,26,28,30,-1,-1,-1,-1,-1,-1,-1,-1,-1,-1,-1,-1,-1,-1,-1,-1],"split_conditions":[2.8019833E1,-2.2094664E2,2.375E0,-4.0045706E2,-8.233491E1,2.7192334E2,5.625E0,2E0,2E0,-1.4487828E2,2.875E0,1.340646E2,4.283175E2,3E1,1.3698214E3,-9.397372E-3,-1.54564995E-2,-6.4481646E-3,-9.61612E-3,-6.0122465E-3,-4.3190564E-3,-2.4641731E-3,3.7838977E-3,4.835499E-4,2.9850812E-3,5.8188112E-3,9.810018E-3,2.908814E-3,1.1860787E-2,1.0700277E-2,3.4362774E-2],"split_indices":[2,2,10,2,2,2,10,11,11,2,10,2,2,13,0,0,0,0,0,0,0,0,0,0,0,0,0,0,0,0,0],"split_type":[0,0,0,0,0,0,0,0,0,0,0,0,0,0,0,0,0,0,0,0,0,0,0,0,0,0,0,0,0,0,0],"sum_hessian":[1.575474E5,7.229049E4,8.5256914E4,1.8779988E4,5.3510508E4,6.890011E4,1.6356801E4,4.858877E3,1.392111E4,2.5122203E4,2.8388305E4,5.0788668E4,1.8111443E4,1.5434557E4,9.222435E2,6.945871E2,4.16429E3,3.3138875E3,1.0607224E4,1.2042929E4,1.3079273E4,2.766163E4,7.2667365E2,2.602828E4,2.4760389E4,1.2602369E4,5.509074E3,3.1416804E3,1.2292876E4,2.5692984E2,6.653137E2],"tree_param":{"num_deleted":"0","num_feature":"14","num_nodes":"31","size_leaf_vector":"1"}},{"base_weights":[1.1362787E-3,-9.48525E-2,9.728608E-2,-2.0373853E-1,-6.1642133E-2,6.679736E-2,2.303509E-1,-2.825777E-1,-1.7626259E-1,-1.0333627E-1,-3.898086E-2,4.899545E-2,1.6940649E-1,1.8265122E-1,3.431776E-1,-7.7066207E-3,-1.4897348E-2,-6.2082275E-3,-9.62615E-3,-5.7151145E-3,-3.0291667E-3,-2.0080197E-3,3.318832E-2,9.999585E-4,3.7829527E-3,7.4482495E-3,1.9189447E-2,8.6612515E-3,1.8361792E-2,1.5787482E-2,3.4260865E-2],"categories":[],"categories_nodes":[],"categories_segments":[],"categories_sizes":[],"default_left":[0,0,0,0,0,0,0,0,0,0,0,0,0,0,0,0,0,0,0,0,0,0,0,0,0,0,0,0,0,0,0],"id":30,"left_children":[1,3,5,7,9,11,13,15,17,19,21,23,25,27,29,-1,-1,-1,-1,-1,-1,-1,-1,-1,-1,-1,-1,-1,-1,-1,-1],"loss_changes":[1.4492544E3,2.8413013E2,3.1823083E2,3.9681213E1,5.6887543E1,1.1657211E2,7.857269E1,9.270996E0,1.1493408E1,9.926636E0,3.239437E1,4.205098E1,4.1234985E1,1.776294E1,4.0309814E1,0E0,0E0,0E0,0E0,0E0,0E0,0E0,0E0,0E0,0E0,0E0,0E0,0E0,0E0,0E0,0E0],"parents":[2147483647,0,0,1,1,2,2,3,3,4,4,5,5,6,6,7,7,8,8,9,9,10,10,11,11,12,12,13,13,14,14],"right_children":[2,4,6,8,10,12,14,16,18,20,22,24,26,28,30,-1,-1,-1,-1,-1,-1,-1,-1,-1,-1,-1,-1,-1,-1,-1,-1],"split_conditions":[5.4399544E1,-2.2094664E2,3.8083667E2,-4.0045706E2,-9.8694885E1,2.375E0,2.875E0,1E0,2E0,5E0,5.625E0,1.647409E2,5E0,1.875E0,6E0,-7.7066207E-3,-1.4897348E-2,-6.2082275E-3,-9.62615E-3,-5.7151145E-3,-3.0291667E-3,-2.0080197E-3,3.318832E-2,9.999585E-4,3.7829527E-3,7.4482495E-3,1.9189447E-2,8.6612515E-3,1.8361792E-2,1.5787482E-2,3.4260865E-2],"split_indices":[2,2,2,2,2,10,10,11,11,12,10,2,10,9,10,0,0,0,0,0,0,0,0,0,0,0,0,0,0,0,0],"split_type":[0,0,0,0,0,0,0,0,0,0,0,0,0,0,0,0,0,0,0,0,0,0,0,0,0,0,0,0,0,0,0],"sum_hessian":[1.5702353E5,7.857758E4,7.844595E4,1.836253E4,6.0215047E4,6.382494E4,1.4621007E4,4.74079E3,1.3621738E4,2.1200832E4,3.9014215E4,5.4391402E4,9.433541E3,1.0280122E4,4.3408843E3,5.0899924E2,4.2317905E3,3.2443098E3,1.0377429E4,1.6870299E4,4.3305337E3,3.8950723E4,6.3491497E1,2.6057615E4,2.8333785E4,8.615443E3,8.18098E2,9.784342E3,4.957803E2,4.0221936E3,3.1869077E2],"tree_param":{"num_deleted":"0","num_feature":"14","num_nodes":"31","size_leaf_vector":"1"}},{"base_weights":[7.165873E-4,-2.8629156E-2,1.4804612E-1,-9.755666E-2,6.5476233E-3,1.0332767E-1,2.6592994E-1,-1.4502513E-1,-3.1706307E-2,-1.4962025E-2,8.742464E-2,7.4231317E-3,1.3947691E-1,1.15241155E-1,3.3266455E-1,-1.2708522E-2,-6.1690803E-3,-7.633702E-3,-4.666481E-4,-1.8731805E-3,1.731187E-3,4.184803E-3,2.8127281E-2,-6.657681E-3,2.4923303E-3,-1.1582111E-3,8.469517E-3,1.1737002E-2,3.1601225E-3,1.4676054E-2,3.128052E-2],"categories":[],"categories_nodes":[],"categories_segments":[],"categories_sizes":[],"default_left":[0,0,0,0,0,0,0,0,0,0,0,0,0,0,0,0,0,0,0,0,0,0,0,0,0,0,0,0,0,0,0],"id":31,"left_children":[1,3,5,7,9,11,13,15,17,19,21,23,25,27,29,-1,-1,-1,-1,-1,-1,-1,-1,-1,-1,-1,-1,-1,-1,-1,-1],"loss_changes":[6.795761E2,3.178101E2,1.3757513E2,1.3843344E2,1.5097903E2,6.562959E1,7.211505E1,6.073468E1,5.021633E1,7.649411E1,3.2205338E1,3.09319E1,6.6897125E1,1.3691584E1,5.667334E1,0E0,0E0,0E0,0E0,0E0,0E0,0E0,0E0,0E0,0E0,0E0,0E0,0E0,0E0,0E0,0E0],"parents":[2147483647,0,0,1,1,2,2,3,3,4,4,5,5,6,6,7,7,8,8,9,9,10,10,11,11,12,12,13,13,14,14],"right_children":[2,4,6,8,10,12,14,16,18,20,22,24,26,28,30,-1,-1,-1,-1,-1,-1,-1,-1,-1,-1,-1,-1,-1,-1,-1,-1],"split_conditions":[2.125E0,1.5487128E3,3.375E0,5E0,5E0,5E0,1.3698214E3,1.2943953E3,1.2417452E3,1.8216051E3,1E0,1.4862628E3,1.2812343E3,1.875E0,5.875E0,-1.2708522E-2,-6.1690803E-3,-7.633702E-3,-4.666481E-4,-1.8731805E-3,1.731187E-3,4.184803E-3,2.8127281E-2,-6.657681E-3,2.4923303E-3,-1.1582111E-3,8.469517E-3,1.1737002E-2,3.1601225E-3,1.4676054E-2,3.128052E-2],"split_indices":[10,0,10,12,12,12,0,0,0,0,3,0,0,7,10,0,0,0,0,0,0,0,0,0,0,0,0,0,0,0,0],"split_type":[0,0,0,0,0,0,0,0,0,0,0,0,0,0,0,0,0,0,0,0,0,0,0,0,0,0,0,0,0,0,0],"sum_hessian":[1.5717816E5,1.3107223E5,2.6105932E4,4.4288035E4,8.6784195E4,1.8929068E4,7.176864E3,2.5734684E4,1.8553352E4,6.855364E4,1.8230555E4,5.1824233E3,1.3746645E4,2.2044968E3,4.972367E3,4.2551367E3,2.1479547E4,2.894076E3,1.5659275E4,4.7155418E4,2.1398225E4,1.8090936E4,1.3961911E2,1.200408E3,3.9820154E3,2.1356174E3,1.1611026E4,6.666397E2,1.5378572E3,4.389805E3,5.8256213E2],"tree_param":{"num_deleted":"0","num_feature":"14","num_nodes":"31","size_leaf_vector":"1"}},{"base_weights":[4.1323897E-4,-3.6390565E-2,1.1887728E-1,-9.104267E-2,4.1676383E-3,7.454835E-2,2.1976905E-1,-1.273558E-1,-2.9737003E-2,-1.2918415E-2,8.340631E-2,1.1314225E-1,-1.7327598E-3,6.586962E-2,2.6073676E-1,-1.12893805E-2,-5.26197E-3,-7.6375874E-3,-5.5497064E-4,-1.4917016E-3,2.1019436E-3,3.9310586E-3,2.5742566E-2,2.5761419E-3,8.308831E-3,-5.0962237E-3,1.4740971E-3,2.6186733E-3,2.2316722E-2,1.1803497E-2,2.807701E-2],"categories":[],"categories_nodes":[],"categories_segments":[],"categories_sizes":[],"default_left":[0,0,0,0,0,0,0,0,0,0,0,0,0,0,0,0,0,0,0,0,0,0,0,0,0,0,0,0,0,0,0],"id":32,"left_children":[1,3,5,7,9,11,13,15,17,19,21,23,25,27,29,-1,-1,-1,-1,-1,-1,-1,-1,-1,-1,-1,-1,-1,-1,-1,-1],"loss_changes":[6.846858E2,2.655853E2,1.6644885E2,1.13618195E2,9.3119606E1,7.614462E1,7.160004E1,6.973102E1,4.353272E1,5.260157E1,2.5106567E1,5.6109497E1,2.718817E1,1.2232078E1,6.63089E1,0E0,0E0,0E0,0E0,0E0,0E0,0E0,0E0,0E0,0E0,0E0,0E0,0E0,0E0,0E0,0E0],"parents":[2147483647,0,0,1,1,2,2,3,3,4,4,5,5,6,6,7,7,8,8,9,9,10,10,11,11,12,12,13,13,14,14],"right_children":[2,4,6,8,10,12,14,16,18,20,22,24,26,28,30,-1,-1,-1,-1,-1,-1,-1,-1,-1,-1,-1,-1,-1,-1,-1,-1],"split_conditions":[1.875E0,1.6085183E3,2.875E0,5E0,5E0,6E0,1.3150868E3,1.3573573E3,1.2512225E3,1.8803904E3,1E0,5E0,7.5E-1,7.25E0,5.875E0,-1.12893805E-2,-5.26197E-3,-7.6375874E-3,-5.5497064E-4,-1.4917016E-3,2.1019436E-3,3.9310586E-3,2.5742566E-2,2.5761419E-3,8.308831E-3,-5.0962237E-3,1.4740971E-3,2.6186733E-3,2.2316722E-2,1.1803497E-2,2.807701E-2],"split_indices":[10,0,10,12,12,11,0,0,0,0,3,12,6,10,10,0,0,0,0,0,0,0,0,0,0,0,0,0,0,0,0],"split_type":[0,0,0,0,0,0,0,0,0,0,0,0,0,0,0,0,0,0,0,0,0,0,0,0,0,0,0,0,0,0,0],"sum_hessian":[1.5703667E5,1.1981465E5,3.7222023E4,5.103824E4,6.8776414E4,2.5862336E4,1.1359686E4,3.2051215E4,1.8987023E4,5.657825E4,1.2198164E4,1.7172873E4,8.689464E3,2.3892905E3,8.9703955E3,5.8769023E3,2.6174312E4,2.4962817E3,1.649074E4,4.3263E4,1.331525E4,1.2066697E4,1.3146677E2,7.945324E3,9.227548E3,2.0630469E3,6.626417E3,2.3096365E3,7.965401E1,8.293844E3,6.76552E2],"tree_param":{"num_deleted":"0","num_feature":"14","num_nodes":"31","size_leaf_vector":"1"}},{"base_weights":[1.0705111E-4,-9.535418E-2,8.378141E-2,-1.9629297E-1,-6.263959E-2,5.576536E-2,1.9509514E-1,-2.8813383E-1,-1.7166026E-1,-9.587678E-2,-3.597697E-2,4.1306164E-2,1.454475E-1,1.7944103E-1,4.519059E-1,-9.028475E-3,-1.51420925E-2,-6.4152307E-3,-9.256202E-3,-5.409648E-3,-3.771819E-3,-1.9798824E-3,4.6501644E-3,8.5228943E-4,3.559719E-3,6.9426545E-3,3.5E-2,8.033769E-3,1.4454098E-2,2.8892664E-2,1.4215342E-2],"categories":[],"categories_nodes":[],"categories_segments":[],"categories_sizes":[],"default_left":[0,0,0,0,0,0,0,0,0,0,0,0,0,0,0,0,0,0,0,0,0,0,0,0,0,0,0,0,0,0,0],"id":33,"left_children":[1,3,5,7,9,11,13,15,17,19,21,23,25,27,29,-1,-1,-1,-1,-1,-1,-1,-1,-1,-1,-1,-1,-1,-1,-1,-1],"loss_changes":[1.256141E3,2.4254102E2,2.6132672E2,4.0575073E1,4.915834E1,8.681143E1,6.757825E1,5.90152E0,8.230804E0,6.2002563E0,1.438501E1,4.1808372E1,4.2780792E1,3.2591217E1,2.0079086E1,0E0,0E0,0E0,0E0,0E0,0E0,0E0,0E0,0E0,0E0,0E0,0E0,0E0,0E0,0E0,0E0],"parents":[2147483647,0,0,1,1,2,2,3,3,4,4,5,5,6,6,7,7,8,8,9,9,10,10,11,11,12,12,13,13,14,14],"right_children":[2,4,6,8,10,12,14,16,18,20,22,24,26,28,30,-1,-1,-1,-1,-1,-1,-1,-1,-1,-1,-1,-1,-1,-1,-1,-1],"split_conditions":[3.6851086E1,-2.2094664E2,3.6296295E2,-4.2854648E2,-8.233491E1,2.375E0,4.875E0,2E0,2E0,-1.26157524E2,2.875E0,1.7086958E2,8.875E0,6.4074146E2,6E0,-9.028475E-3,-1.51420925E-2,-6.4152307E-3,-9.256202E-3,-5.409648E-3,-3.771819E-3,-1.9798824E-3,4.6501644E-3,8.5228943E-4,3.559719E-3,6.9426545E-3,3.5E-2,8.033769E-3,1.4454098E-2,2.8892664E-2,1.4215342E-2],"split_indices":[2,2,2,2,2,10,10,11,11,2,10,2,10,2,11,0,0,0,0,0,0,0,0,0,0,0,0,0,0,0,0],"split_type":[0,0,0,0,0,0,0,0,0,0,0,0,0,0,0,0,0,0,0,0,0,0,0,0,0,0,0,0,0,0,0],"sum_hessian":[1.572563E5,7.34544E4,8.38019E4,1.7977123E4,5.5477273E4,6.695364E4,1.6848256E4,3.7974126E3,1.4179711E4,2.4691742E4,3.078553E4,5.7660176E4,9.293465E3,1.5883466E4,9.6479144E2,4.599806E2,3.3374321E3,3.3649785E3,1.0814732E4,1.5402509E4,9.289233E3,2.9946277E4,8.39253E2,3.1828225E4,2.5831951E4,9.215248E3,7.821686E1,1.3566426E4,2.317039E3,5.4804834E2,4.1674307E2],"tree_param":{"num_deleted":"0","num_feature":"14","num_nodes":"31","size_leaf_vector":"1"}},{"base_weights":[6.819297E-4,-9.499624E-2,7.909452E-2,-1.9623385E-1,-6.538201E-2,3.2238413E-2,1.4836039E-1,-2.832568E-1,-1.6939445E-1,-9.482283E-2,-3.76434E-2,3.80511E-3,5.7793688E-2,1.2333011E-1,2.2999202E-1,-7.3151365E-3,-1.5078007E-2,-5.888488E-3,-9.2912465E-3,-5.1862486E-3,-3.044418E-3,-2.0462535E-3,6.205963E-3,-7.2867994E-4,1.5247165E-3,5.902836E-3,2.244047E-3,3.9655617E-3,7.8188805E-3,9.26506E-3,1.632293E-2],"categories":[],"categories_nodes":[],"categories_segments":[],"categories_sizes":[],"default_left":[0,0,0,0,0,0,0,0,0,0,0,0,0,0,0,0,0,0,0,0,0,0,0,0,0,0,0,0,0,0,0],"id":34,"left_children":[1,3,5,7,9,11,13,15,17,19,21,23,25,27,29,-1,-1,-1,-1,-1,-1,-1,-1,-1,-1,-1,-1,-1,-1,-1,-1],"loss_changes":[1.1777373E3,2.1195795E2,2.799997E2,3.727722E1,4.466954E1,3.739521E1,7.107379E1,9.359131E0,1.0333618E1,8.004242E0,1.4964951E1,1.1951249E1,2.1080833E1,3.8739166E1,3.5088623E1,0E0,0E0,0E0,0E0,0E0,0E0,0E0,0E0,0E0,0E0,0E0,0E0,0E0,0E0,0E0,0E0],"parents":[2147483647,0,0,1,1,2,2,3,3,4,4,5,5,6,6,7,7,8,8,9,9,10,10,11,11,12,12,13,13,14,14],"right_children":[2,4,6,8,10,12,14,16,18,20,22,24,26,28,30,-1,-1,-1,-1,-1,-1,-1,-1,-1,-1,-1,-1,-1,-1,-1,-1],"split_conditions":[2.8019833E1,-2.3551955E2,2.3551903E2,-4.2854648E2,-8.233491E1,4E0,4.7733197E2,2E0,2E0,5E0,3.25E0,1.366832E2,3E0,5E0,4E0,-7.3151365E-3,-1.5078007E-2,-5.888488E-3,-9.2912465E-3,-5.1862486E-3,-3.044418E-3,-2.0462535E-3,6.205963E-3,-7.2867994E-4,1.5247165E-3,5.902836E-3,2.244047E-3,3.9655617E-3,7.8188805E-3,9.26506E-3,1.632293E-2],"split_indices":[2,2,2,2,2,12,2,11,11,12,9,2,11,12,11,0,0,0,0,0,0,0,0,0,0,0,0,0,0,0,0],"split_type":[0,0,0,0,0,0,0,0,0,0,0,0,0,0,0,0,0,0,0,0,0,0,0,0,0,0,0,0,0,0,0],"sum_hessian":[1.5697797E5,7.0704586E4,8.6273375E4,1.5999231E4,5.470536E4,5.1463152E4,3.4810223E4,3.7668032E3,1.2232429E4,2.653605E4,2.8169307E4,2.4360963E4,2.710219E4,2.6645172E4,8.16505E3,4.4619006E2,3.320613E3,2.9572058E3,9.275223E3,2.1018176E4,5.517876E3,2.7610664E4,5.586422E2,1.4427096E4,9.933867E3,4.779634E3,2.2322555E4,1.142886E4,1.52163125E4,5.583964E3,2.581086E3],"tree_param":{"num_deleted":"0","num_feature":"14","num_nodes":"31","size_leaf_vector":"1"}},{"base_weights":[3.4236096E-4,-9.5438346E-2,7.792321E-2,-1.9033699E-1,-6.2185824E-2,3.9341148E-2,1.467642E-1,-2.6215598E-1,-1.5757936E-1,-9.254968E-2,-3.6127005E-2,1.9908803E-2,1.0025938E-1,1.24248825E-1,2.5021926E-1,-1.6127292E-2,-1.1679985E-2,-6.219628E-3,-9.043704E-3,-3.1213167E-3,-5.1689474E-3,-1.8579941E-3,2.7113883E-2,-1.1331446E-4,2.3076246E-3,7.615655E-4,6.871251E-3,5.716017E-3,1.1665876E-2,9.060479E-3,1.8154109E-2],"categories":[],"categories_nodes":[],"categories_segments":[],"categories_sizes":[],"default_left":[0,0,0,0,0,0,0,0,0,0,0,0,0,0,0,0,0,0,0,0,0,0,0,0,0,0,0,0,0,0,0],"id":35,"left_children":[1,3,5,7,9,11,13,15,17,19,21,23,25,27,29,-1,-1,-1,-1,-1,-1,-1,-1,-1,-1,-1,-1,-1,-1,-1,-1],"loss_changes":[1.1666625E3,2.2169336E2,2.3038208E2,4.2806396E1,4.1164047E1,6.58044E1,7.25061E1,9.6918335E0,9.637634E0,7.8260193E0,1.6770916E1,2.4529398E1,4.2480606E1,2.765747E1,4.322281E1,0E0,0E0,0E0,0E0,0E0,0E0,0E0,0E0,0E0,0E0,0E0,0E0,0E0,0E0,0E0,0E0],"parents":[2147483647,0,0,1,1,2,2,3,3,4,4,5,5,6,6,7,7,8,8,9,9,10,10,11,11,12,12,13,13,14,14],"right_children":[2,4,6,8,10,12,14,16,18,20,22,24,26,28,30,-1,-1,-1,-1,-1,-1,-1,-1,-1,-1,-1,-1,-1,-1,-1,-1],"split_conditions":[2.8019833E1,-2.1698524E2,2.574136E2,-3.7143118E2,-8.233491E1,1.875E0,3.125E0,-5.231134E2,4E0,2E0,6E0,1.340646E2,3E1,2.75E0,1.875E0,-1.6127292E-2,-1.1679985E-2,-6.219628E-3,-9.043704E-3,-3.1213167E-3,-5.1689474E-3,-1.8579941E-3,2.7113883E-2,-1.1331446E-4,2.3076246E-3,7.615655E-4,6.871251E-3,5.716017E-3,1.1665876E-2,9.060479E-3,1.8154109E-2],"split_indices":[2,2,2,2,2,10,10,2,11,11,10,2,13,6,6,0,0,0,0,0,0,0,0,0,0,0,0,0,0,0,0],"split_type":[0,0,0,0,0,0,0,0,0,0,0,0,0,0,0,0,0,0,0,0,0,0,0,0,0,0,0,0,0,0,0],"sum_hessian":[1.5700072E5,7.0259016E4,8.6741695E4,1.8228281E4,5.2030734E4,5.558957E4,3.1152129E4,5.705448E3,1.2522834E4,2.4028043E4,2.8002691E4,4.2147547E4,1.3442022E4,2.5587754E4,5.5643735E3,1.8251326E3,3.8803157E3,5.1700327E3,7.352801E3,6.357406E3,1.7670637E4,2.7954645E4,4.8048153E1,2.284558E4,1.9301969E4,4.0892957E3,9.352727E3,2.3456604E4,2.1311514E3,3.4562634E3,2.1081104E3],"tree_param":{"num_deleted":"0","num_feature":"14","num_nodes":"31","size_leaf_vector":"1"}},{"base_weights":[6.704674E-5,-8.6344935E-2,8.059365E-2,-1.839206E-1,-5.5877466E-2,5.385601E-2,1.803732E-1,-2.6765588E-1,-1.5603635E-1,-8.696514E-2,-3.40151E-2,3.1903066E-2,1.08787164E-1,1.7190447E-1,5.4832345E-1,-7.6762936E-3,-1.4381287E-2,-5.3153974E-3,-8.6070625E-3,-5.252577E-3,-3.420208E-3,-1.7595742E-3,2.4690552E-2,4.3867202E-4,3.2233223E-3,6.6541065E-4,7.222173E-3,7.1157464E-3,1.2061283E-2,3.5E-2,2.0663941E-2],"categories":[],"categories_nodes":[],"categories_segments":[],"categories_sizes":[],"default_left":[0,0,0,0,0,0,0,0,0,0,0,0,0,0,0,0,0,0,0,0,0,0,0,0,0,0,0,0,0,0,0],"id":36,"left_children":[1,3,5,7,9,11,13,15,17,19,21,23,25,27,29,-1,-1,-1,-1,-1,-1,-1,-1,-1,-1,-1,-1,-1,-1,-1,-1],"loss_changes":[1.0957651E3,2.2580072E2,2.1744391E2,4.2116455E1,3.9338165E1,7.751846E1,5.348755E1,1.0195923E1,1.0825989E1,8.008926E0,2.1140347E1,3.4595955E1,6.248651E1,3.447525E1,1.2983994E1,0E0,0E0,0E0,0E0,0E0,0E0,0E0,0E0,0E0,0E0,0E0,0E0,0E0,0E0,0E0,0E0],"parents":[2147483647,0,0,1,1,2,2,3,3,4,4,5,5,6,6,7,7,8,8,9,9,10,10,11,11,12,12,13,13,14,14],"right_children":[2,4,6,8,10,12,14,16,18,20,22,24,26,28,30,-1,-1,-1,-1,-1,-1,-1,-1,-1,-1,-1,-1,-1,-1,-1,-1],"split_conditions":[4.9852985E1,-2.1698524E2,3.6296295E2,-4.0045706E2,-8.233491E1,1.875E0,6E0,2E0,2E0,-1.3931935E2,6E0,1.8321526E2,3E1,5.5340674E2,1.5781807E3,-7.6762936E-3,-1.4381287E-2,-5.3153974E-3,-8.6070625E-3,-5.252577E-3,-3.420208E-3,-1.7595742E-3,2.4690552E-2,4.3867202E-4,3.2233223E-3,6.6541065E-4,7.222173E-3,7.1157464E-3,1.2061283E-2,3.5E-2,2.0663941E-2],"split_indices":[2,2,2,2,2,10,10,11,11,2,10,2,13,2,0,0,0,0,0,0,0,0,0,0,0,0,0,0,0,0,0],"split_type":[0,0,0,0,0,0,0,0,0,0,0,0,0,0,0,0,0,0,0,0,0,0,0,0,0,0,0,0,0,0,0],"sum_hessian":[1.574683E5,7.595833E4,8.150997E4,1.8071652E4,5.7886676E4,6.4286402E4,1.7223564E4,4.510278E3,1.3561375E4,2.3898174E4,3.39885E4,4.5932773E4,1.835363E4,1.6838936E4,3.846301E2,6.7424774E2,3.8360298E3,3.32126E3,1.0240114E4,1.209911E4,1.1799064E4,3.391478E4,7.372036E1,2.6858113E4,1.907466E4,4.991186E3,1.3362444E4,1.1805779E4,5.033156E3,1.085741E2,2.76056E2],"tree_param":{"num_deleted":"0","num_feature":"14","num_nodes":"31","size_leaf_vector":"1"}},{"base_weights":[1.636636E-4,-9.211066E-2,7.195439E-2,-1.8448728E-1,-6.2077943E-2,3.485879E-2,1.3582397E-1,-2.7971157E-1,-1.5846054E-1,-8.978291E-2,-3.780518E-2,8.964189E-3,5.773327E-2,1.0464059E-1,1.9452758E-1,-1.9938074E-2,-1.3326484E-2,-5.525879E-3,-8.708909E-3,-3.0407691E-3,-5.0170473E-3,-2.414662E-3,2.8002241E-5,-5.254856E-4,2.0515367E-3,1.5220976E-3,4.732557E-3,3.5646956E-3,7.4552572E-3,9.304947E-3,2.926523E-2],"categories":[],"categories_nodes":[],"categories_segments":[],"categories_sizes":[],"default_left":[0,0,0,0,0,0,0,0,0,0,0,0,0,0,0,0,0,0,0,0,0,0,0,0,0,0,0,0,0,0,0],"id":37,"left_children":[1,3,5,7,9,11,13,15,17,19,21,23,25,27,29,-1,-1,-1,-1,-1,-1,-1,-1,-1,-1,-1,-1,-1,-1,-1,-1],"loss_changes":[1.0439631E3,1.912904E2,2.0998947E2,4.1839905E1,3.4990738E1,3.3211685E1,5.957086E1,5.4821167E0,9.976868E0,7.420273E0,1.116325E1,1.6425467E1,2.9990303E1,3.1518951E1,3.698407E1,0E0,0E0,0E0,0E0,0E0,0E0,0E0,0E0,0E0,0E0,0E0,0E0,0E0,0E0,0E0,0E0],"parents":[2147483647,0,0,1,1,2,2,3,3,4,4,5,5,6,6,7,7,8,8,9,9,10,10,11,11,12,12,13,13,14,14],"right_children":[2,4,6,8,10,12,14,16,18,20,22,24,26,28,30,-1,-1,-1,-1,-1,-1,-1,-1,-1,-1,-1,-1,-1,-1,-1,-1],"split_conditions":[2.5709991E1,-2.2428418E2,2.5263664E2,-4.2854648E2,-8.4536156E1,4E0,4E0,-7.164302E2,2E0,2E0,1.875E0,1.5038899E2,1.25E0,4.0077466E2,2.5E0,-1.9938074E-2,-1.3326484E-2,-5.525879E-3,-8.708909E-3,-3.0407691E-3,-5.0170473E-3,-2.414662E-3,2.8002241E-5,-5.254856E-4,2.0515367E-3,1.5220976E-3,4.732557E-3,3.5646956E-3,7.4552572E-3,9.304947E-3,2.926523E-2],"split_indices":[2,2,2,2,2,12,11,2,11,11,9,2,9,2,9,0,0,0,0,0,0,0,0,0,0,0,0,0,0,0,0],"split_type":[0,0,0,0,0,0,0,0,0,0,0,0,0,0,0,0,0,0,0,0,0,0,0,0,0,0,0,0,0,0,0],"sum_hessian":[1.5758866E5,6.895657E4,8.863208E4,1.691574E4,5.2040832E4,5.6069734E4,3.2562344E4,3.626808E3,1.3288932E4,2.4299707E4,2.7741123E4,2.630006E4,2.9769676E4,2.1269527E4,1.1292816E4,3.557163E2,3.2710918E3,3.2849705E3,1.0003961E4,6.4945317E3,1.7805176E4,2.178512E4,5.9560024E3,1.6363753E4,9.936307E3,1.7118543E4,1.2651133E4,1.2157264E4,9.112264E3,1.1057275E4,2.3554095E2],"tree_param":{"num_deleted":"0","num_feature":"14","num_nodes":"31","size_leaf_vector":"1"}},{"base_weights":[4.7200368E-4,-8.915882E-2,7.1225695E-2,-1.9050981E-1,-6.010424E-2,3.149968E-2,1.358299E-1,-2.638217E-1,-1.6164812E-1,-8.946997E-2,-3.284209E-2,1.1907466E-2,5.9397455E-2,1.09699816E-1,2.1125516E-1,-1.5737899E-2,-1.1488638E-2,-7.7182623E-3,-1.3471405E-2,-4.94409E-3,-2.690316E-3,-1.7975752E-3,5.8587054E-3,-1.8589146E-4,3.481023E-3,2.5480378E-3,7.974637E-3,5.2835783E-3,1.9218864E-2,1.0243298E-2,3.5E-2],"categories":[],"categories_nodes":[],"categories_segments":[],"categories_sizes":[],"default_left":[0,0,0,0,0,0,0,0,0,0,0,0,0,0,0,0,0,0,0,0,0,0,0,0,0,0,0,0,0,0,0],"id":38,"left_children":[1,3,5,7,9,11,13,15,17,19,21,23,25,27,29,-1,-1,-1,-1,-1,-1,-1,-1,-1,-1,-1,-1,-1,-1,-1,-1],"loss_changes":[9.977793E2,2.0436597E2,2.2565369E2,3.263391E1,4.3182922E1,2.9759579E1,6.59375E1,7.4255066E0,8.6302185E0,8.7066345E0,1.305949E1,2.8847322E1,1.8953094E1,2.7436066E1,3.149704E1,0E0,0E0,0E0,0E0,0E0,0E0,0E0,0E0,0E0,0E0,0E0,0E0,0E0,0E0,0E0,0E0],"parents":[2147483647,0,0,1,1,2,2,3,3,4,4,5,5,6,6,7,7,8,8,9,9,10,10,11,11,12,12,13,13,14,14],"right_children":[2,4,6,8,10,12,14,16,18,20,22,24,26,28,30,-1,-1,-1,-1,-1,-1,-1,-1,-1,-1,-1,-1,-1,-1,-1,-1],"split_conditions":[2.8019833E1,-2.3551955E2,2.4790121E2,-4.0045706E2,-8.233491E1,1.4754674E2,4.7733197E2,-5.231134E2,3.25E0,5E0,3.25E0,1.625E0,2.625E0,2.5E0,4.125E0,-1.5737899E-2,-1.1488638E-2,-7.7182623E-3,-1.3471405E-2,-4.94409E-3,-2.690316E-3,-1.7975752E-3,5.8587054E-3,-1.8589146E-4,3.481023E-3,2.5480378E-3,7.974637E-3,5.2835783E-3,1.9218864E-2,1.0243298E-2,3.5E-2],"split_indices":[2,2,2,2,2,2,2,2,7,12,9,7,6,9,6,0,0,0,0,0,0,0,0,0,0,0,0,0,0,0,0],"split_type":[0,0,0,0,0,0,0,0,0,0,0,0,0,0,0,0,0,0,0,0,0,0,0,0,0,0,0,0,0,0,0],"sum_hessian":[1.5733195E5,6.940682E4,8.792513E4,1.5461482E4,5.394534E4,5.4447555E4,3.3477574E4,4.362914E3,1.1098568E4,2.596851E4,2.797683E4,3.1986643E4,2.2460914E4,2.4867477E4,8.610101E3,1.7413749E3,2.621539E3,1.0400643E4,6.979258E2,2.054344E4,5.4250713E3,2.7410215E4,5.666156E2,2.517311E4,6.8135312E3,2.0717705E4,1.7432089E3,2.4510785E4,3.566908E2,8.521747E3,8.835314E1],"tree_param":{"num_deleted":"0","num_feature":"14","num_nodes":"31","size_leaf_vector":"1"}},{"base_weights":[1.049294E-3,-7.9628E-2,7.473948E-2,-1.8543045E-1,-5.2452397E-2,6.0570322E-2,2.3146778E-1,-2.633547E-1,-1.5489964E-1,-9.545962E-2,-3.5650916E-2,2.833091E-2,1.0340944E-1,2.0425981E-1,4.23534E-1,-1.1467484E-2,-1.5533092E-2,-5.0561214E-3,-8.628755E-3,-4.9654003E-3,8.126699E-4,-1.8277438E-3,2.5123617E-2,4.7054513E-5,2.3949759E-3,4.201257E-3,7.6724305E-3,9.877388E-3,3.5E-2,2.9439837E-2,1.4275672E-2],"categories":[],"categories_nodes":[],"categories_segments":[],"categories_sizes":[],"default_left":[0,0,0,0,0,0,0,0,0,0,0,0,0,0,0,0,0,0,0,0,0,0,0,0,0,0,0,0,0,0,0],"id":39,"left_children":[1,3,5,7,9,11,13,15,17,19,21,23,25,27,29,-1,-1,-1,-1,-1,-1,-1,-1,-1,-1,-1,-1,-1,-1,-1,-1],"loss_changes":[9.334844E2,2.1549417E2,1.8220746E2,3.6359314E1,4.3087997E1,1.0393744E2,3.537799E1,6.789276E0,1.0430603E1,7.205551E0,2.0899658E1,2.301807E1,3.132077E1,3.2795456E1,1.8875748E1,0E0,0E0,0E0,0E0,0E0,0E0,0E0,0E0,0E0,0E0,0E0,0E0,0E0,0E0,0E0,0E0],"parents":[2147483647,0,0,1,1,2,2,3,3,4,4,5,5,6,6,7,7,8,8,9,9,10,10,11,11,12,12,13,13,14,14],"right_children":[2,4,6,8,10,12,14,16,18,20,22,24,26,28,30,-1,-1,-1,-1,-1,-1,-1,-1,-1,-1,-1,-1,-1,-1,-1,-1],"split_conditions":[4.9852985E1,-2.3551955E2,3.375E0,-4.0045706E2,-1.26157524E2,2.278483E2,6E0,2.375E0,2E0,2.375E0,6E0,1.125E0,4.283175E2,3E0,6E0,-1.1467484E-2,-1.5533092E-2,-5.0561214E-3,-8.628755E-3,-4.9654003E-3,8.126699E-4,-1.8277438E-3,2.5123617E-2,4.7054513E-5,2.3949759E-3,4.201257E-3,7.6724305E-3,9.877388E-3,3.5E-2,2.9439837E-2,1.4275672E-2],"split_indices":[2,2,10,2,2,2,10,7,11,10,10,9,2,9,11,0,0,0,0,0,0,0,0,0,0,0,0,0,0,0,0],"split_type":[0,0,0,0,0,0,0,0,0,0,0,0,0,0,0,0,0,0,0,0,0,0,0,0,0,0,0,0,0,0,0],"sum_hessian":[1.570128E5,7.49529E4,8.205989E4,1.531511E4,5.963779E4,7.525883E4,6.801066E3,4.3070107E3,1.10081E4,1.6750836E4,4.2886953E4,4.2943887E4,3.2314938E4,5.960791E3,8.4027466E2,2.5126091E3,1.7944014E3,2.726431E3,8.281669E3,1.619322E4,5.576168E2,4.281689E4,7.006107E1,1.7896533E4,2.5047354E4,2.329588E4,9.019058E3,5.9363325E3,2.4458492E1,3.7942624E2,4.6084842E2],"tree_param":{"num_deleted":"0","num_feature":"14","num_nodes":"31","size_leaf_vector":"1"}},{"base_weights":[8.8334235E-4,-3.1117503E-2,1.00386575E-1,-9.146066E-2,-2.1191018E-3,8.382451E-2,2.8518316E-1,-5.9916507E-2,-1.7175336E-1,4.8818372E-2,-2.6606724E-2,1.3583725E-2,1.13299735E-1,2.560008E-1,7E-1,-7.0537305E-3,-2.0069508E-3,-1.3851668E-2,-7.041248E-3,1.2839767E-2,2.2001013E-3,-3.3637264E-3,1.0778089E-4,-3.2504268E-3,2.7575684E-3,3.6808287E-3,9.309E-3,1.0658218E-2,2.4647541E-2,3.5E-2,1.9616103E-2],"categories":[],"categories_nodes":[],"categories_segments":[],"categories_sizes":[],"default_left":[0,0,0,0,0,0,0,0,0,0,0,0,0,0,0,0,0,0,0,0,0,0,0,0,0,0,0,0,0,0,0],"id":40,"left_children":[1,3,5,7,9,11,13,15,17,19,21,23,25,27,29,-1,-1,-1,-1,-1,-1,-1,-1,-1,-1,-1,-1,-1,-1,-1,-1],"loss_changes":[5.011361E2,2.0838017E2,1.17168365E2,9.787656E1,1.00331184E2,7.277228E1,3.810669E1,4.4535576E1,3.5417267E1,2.6136093E1,6.3540337E1,3.3958767E1,7.158255E1,2.9703827E1,5.196083E0,0E0,0E0,0E0,0E0,0E0,0E0,0E0,0E0,0E0,0E0,0E0,0E0,0E0,0E0,0E0,0E0],"parents":[2147483647,0,0,1,1,2,2,3,3,4,4,5,5,6,6,7,7,8,8,9,9,10,10,11,11,12,12,13,13,14,14],"right_children":[2,4,6,8,10,12,14,16,18,20,22,24,26,28,30,-1,-1,-1,-1,-1,-1,-1,-1,-1,-1,-1,-1,-1,-1,-1,-1],"split_conditions":[1.875E0,1.5512168E3,4.375E0,1.6350099E3,1.5875614E3,5E0,8.5E0,1.3017241E3,1.3573573E3,1.1956088E3,1.730631E3,1.5758826E3,1.625E0,7.5E-1,1E1,-7.0537305E-3,-2.0069508E-3,-1.3851668E-2,-7.041248E-3,1.2839767E-2,2.2001013E-3,-3.3637264E-3,1.0778089E-4,-3.2504268E-3,2.7575684E-3,3.6808287E-3,9.309E-3,1.0658218E-2,2.4647541E-2,3.5E-2,1.9616103E-2],"split_indices":[10,0,10,1,1,12,10,0,0,1,0,0,6,8,10,0,0,0,0,0,0,0,0,0,0,0,0,0,0,0,0],"split_type":[0,0,0,0,0,0,0,0,0,0,0,0,0,0,0,0,0,0,0,0,0,0,0,0,0,0,0,0,0,0,0],"sum_hessian":[1.5737875E5,1.19082484E5,3.8296273E4,3.8650285E4,8.0432195E4,3.514901E4,3.1472612E3,2.7751283E4,1.0899001E4,2.611259E4,5.431961E4,1.039062E4,2.4758393E4,2.945162E3,2.0209935E2,5.4352295E3,2.2316055E4,2.4711875E3,8.427813E3,5.886618E2,2.5523928E4,2.2501496E4,3.1818113E4,3.5940999E3,6.7965205E3,1.603266E4,8.725732E3,2.4974631E3,4.4769876E2,1.3885838E2,6.324096E1],"tree_param":{"num_deleted":"0","num_feature":"14","num_nodes":"31","size_leaf_vector":"1"}},{"base_weights":[5.586601E-4,-2.9812299E-2,9.345772E-2,-8.904043E-2,-2.018011E-3,4.1838507E-3,1.2683304E-1,-5.1691312E-2,-1.5434986E-1,2.4837047E-2,-4.61078E-2,-7.340925E-2,4.5383498E-2,1.7205873E-1,6.9731176E-2,-7.7686617E-3,-1.7152677E-3,-1.28550455E-2,-6.419722E-3,4.3435386E-5,3.3292533E-3,-3.743485E-3,1.0594934E-3,-1.2699648E-2,-3.0639356E-3,1.5477313E-3,8.800757E-3,7.3141553E-3,1.625543E-2,3.0428413E-3,1.901126E-2],"categories":[],"categories_nodes":[],"categories_segments":[],"categories_sizes":[],"default_left":[0,0,0,0,0,0,0,0,0,0,0,0,0,0,0,0,0,0,0,0,0,0,0,0,0,0,0,0,0,0,0],"id":41,"left_children":[1,3,5,7,9,11,13,15,17,19,21,23,25,27,29,-1,-1,-1,-1,-1,-1,-1,-1,-1,-1,-1,-1,-1,-1,-1,-1],"loss_changes":[4.4598074E2,1.961024E2,1.1603604E2,9.2790955E1,9.6002495E1,3.389181E1,7.318112E1,4.36269E1,3.6848053E1,5.0420746E1,5.94106E1,8.023495E0,1.3041321E1,6.2302643E1,3.448441E1,0E0,0E0,0E0,0E0,0E0,0E0,0E0,0E0,0E0,0E0,0E0,0E0,0E0,0E0,0E0,0E0],"parents":[2147483647,0,0,1,1,2,2,3,3,4,4,5,5,6,6,7,7,8,8,9,9,10,10,11,11,12,12,13,13,14,14],"right_children":[2,4,6,8,10,12,14,16,18,20,22,24,26,28,30,-1,-1,-1,-1,-1,-1,-1,-1,-1,-1,-1,-1,-1,-1,-1,-1],"split_conditions":[1.875E0,1.5487128E3,5E0,1.5900507E3,1.733069E3,1.5758826E3,6E0,1.2512225E3,1.3432959E3,1.7508507E3,1.8803904E3,1.1720052E3,1.9474508E3,3.875E0,6.625E0,-7.7686617E-3,-1.7152677E-3,-1.28550455E-2,-6.419722E-3,4.3435386E-5,3.3292533E-3,-3.743485E-3,1.0594934E-3,-1.2699648E-2,-3.0639356E-3,1.5477313E-3,8.800757E-3,7.3141553E-3,1.625543E-2,3.0428413E-3,1.901126E-2],"split_indices":[10,0,12,1,1,0,11,0,0,0,0,0,0,10,10,0,0,0,0,0,0,0,0,0,0,0,0,0,0,0,0],"split_type":[0,0,0,0,0,0,0,0,0,0,0,0,0,0,0,0,0,0,0,0,0,0,0,0,0,0,0,0,0,0,0],"sum_hessian":[1.5806488E5,1.19122266E5,3.8942605E4,3.804533E4,8.1076945E4,1.0597681E4,2.8344926E4,2.4205998E4,1.3839328E4,5.0387082E4,3.0689861E4,3.6749404E3,6.92274E3,1.5815075E4,1.252985E4,3.473824E3,2.0732174E4,2.7872974E3,1.105203E4,3.2010996E4,1.8376086E4,2.1500627E4,9.189234E3,2.2881177E2,3.4461287E3,6.2363774E3,6.8636285E2,1.3538863E4,2.2762122E3,1.2184006E4,3.458439E2],"tree_param":{"num_deleted":"0","num_feature":"14","num_nodes":"31","size_leaf_vector":"1"}},{"base_weights":[1.098598E-3,-8.3840944E-2,6.624183E-2,-1.8017714E-1,-5.6832656E-2,2.8959855E-2,1.181253E-1,-2.509544E-1,-1.528105E-1,-8.4851354E-2,-3.71499E-2,4.9460838E-3,4.5825012E-2,9.623581E-2,1.7928179E-1,-7.3953657E-3,-1.3444262E-2,-5.2212286E-3,-8.4153665E-3,-4.304291E-3,8.865323E-3,-2.1440338E-3,1.8927355E-3,1.1070998E-3,-1.2796972E-3,1.9397937E-3,6.329684E-3,3.6663373E-3,6.851887E-3,7.1987356E-3,1.2571021E-2],"categories":[],"categories_nodes":[],"categories_segments":[],"categories_sizes":[],"default_left":[0,0,0,0,0,0,0,0,0,0,0,0,0,0,0,0,0,0,0,0,0,0,0,0,0,0,0,0,0,0,0],"id":42,"left_children":[1,3,5,7,9,11,13,15,17,19,21,23,25,27,29,-1,-1,-1,-1,-1,-1,-1,-1,-1,-1,-1,-1,-1,-1,-1,-1],"loss_changes":[8.711042E2,1.7777307E2,1.7233783E2,2.8903137E1,2.9428238E1,2.0997425E1,4.9835876E1,7.6231995E0,8.059113E0,7.1572266E0,1.3480156E1,1.1235676E1,1.7281452E1,2.5627426E1,2.4931488E1,0E0,0E0,0E0,0E0,0E0,0E0,0E0,0E0,0E0,0E0,0E0,0E0,0E0,0E0,0E0,0E0],"parents":[2147483647,0,0,1,1,2,2,3,3,4,4,5,5,6,6,7,7,8,8,9,9,10,10,11,11,12,12,13,13,14,14],"right_children":[2,4,6,8,10,12,14,16,18,20,22,24,26,28,30,-1,-1,-1,-1,-1,-1,-1,-1,-1,-1,-1,-1,-1,-1,-1,-1],"split_conditions":[2.8019833E1,-2.3551955E2,2.318448E2,-4.0045706E2,-9.8694885E1,1.06068054E2,4.601417E2,2E0,2E0,1.9875168E3,2.5E0,1.75E0,2.625E0,4E0,4E0,-7.3953657E-3,-1.3444262E-2,-5.2212286E-3,-8.4153665E-3,-4.304291E-3,8.865323E-3,-2.1440338E-3,1.8927355E-3,1.1070998E-3,-1.2796972E-3,1.9397937E-3,6.329684E-3,3.6663373E-3,6.851887E-3,7.1987356E-3,1.2571021E-2],"split_indices":[2,2,2,2,2,2,2,11,11,0,9,5,6,11,11,0,0,0,0,0,0,0,0,0,0,0,0,0,0,0,0],"split_type":[0,0,0,0,0,0,0,0,0,0,0,0,0,0,0,0,0,0,0,0,0,0,0,0,0,0,0,0,0,0,0],"sum_hessian":[1.5742723E5,6.8330836E4,8.909639E4,1.4959666E4,5.337117E4,5.18451E4,3.7251293E4,4.166828E3,1.0792837E4,2.2019484E4,3.1351686E4,2.1390465E4,3.0454635E4,2.7436283E4,9.815009E3,6.203311E2,3.5464973E3,2.6219067E3,8.1709307E3,2.1917621E4,1.0186411E2,2.9127068E4,2.224617E3,1.3685333E4,7.7051333E3,2.8019145E4,2.435491E3,1.7574385E4,9.861898E3,6.5937803E3,3.2212283E3],"tree_param":{"num_deleted":"0","num_feature":"14","num_nodes":"31","size_leaf_vector":"1"}},{"base_weights":[-5.4809946E-4,-3.54085E-2,6.5562844E-2,-8.03408E-2,2.2672808E-3,2.906847E-3,1.0021968E-1,-5.4362323E-2,-1.5526626E-1,3.2821026E-2,-3.1632062E-2,-7.610918E-2,3.800296E-2,9.2287235E-2,3.8688776E-1,-7.266247E-3,-2.0409178E-3,-1.4272997E-2,-6.7744665E-3,-2.9747625E-5,3.1278764E-3,-2.8531791E-3,1.1468518E-3,-1.1204014E-2,-2.8363147E-3,1.2422556E-3,5.3992495E-3,6.6387774E-3,1.8662179E-3,9.131227E-3,2.4043554E-2],"categories":[],"categories_nodes":[],"categories_segments":[],"categories_sizes":[],"default_left":[0,0,0,0,0,0,0,0,0,0,0,0,0,0,0,0,0,0,0,0,0,0,0,0,0,0,0,0,0,0,0],"id":43,"left_children":[1,3,5,7,9,11,13,15,17,19,21,23,25,27,29,-1,-1,-1,-1,-1,-1,-1,-1,-1,-1,-1,-1,-1,-1,-1,-1],"loss_changes":[3.6328094E2,1.7471648E2,1.1817372E2,9.160422E1,5.814796E1,5.3759716E1,7.960858E1,4.305275E1,3.1123596E1,2.9340687E1,3.693605E1,1.7075012E1,1.235508E1,7.587253E1,1.7924774E1,0E0,0E0,0E0,0E0,0E0,0E0,0E0,0E0,0E0,0E0,0E0,0E0,0E0,0E0,0E0,0E0],"parents":[2147483647,0,0,1,1,2,2,3,3,4,4,5,5,6,6,7,7,8,8,9,9,10,10,11,11,12,12,13,13,14,14],"right_children":[2,4,6,8,10,12,14,16,18,20,22,24,26,28,30,-1,-1,-1,-1,-1,-1,-1,-1,-1,-1,-1,-1,-1,-1,-1,-1],"split_conditions":[1.625E0,1.6350099E3,5E0,1.6868094E3,1.7209031E3,1.5562362E3,6E0,1.3017241E3,1.3573573E3,1.7404135E3,1.8905065E3,1.2590989E3,1.9064167E3,6E0,1.3698214E3,-7.266247E-3,-2.0409178E-3,-1.4272997E-2,-6.7744665E-3,-2.9747625E-5,3.1278764E-3,-2.8531791E-3,1.1468518E-3,-1.1204014E-2,-2.8363147E-3,1.2422556E-3,5.3992495E-3,6.6387774E-3,1.8662179E-3,9.131227E-3,2.4043554E-2],"split_indices":[10,0,12,1,1,0,10,0,0,0,0,0,0,11,0,0,0,0,0,0,0,0,0,0,0,0,0,0,0,0,0],"split_type":[0,0,0,0,0,0,0,0,0,0,0,0,0,0,0,0,0,0,0,0,0,0,0,0,0,0,0,0,0,0,0],"sum_hessian":[1.5762528E5,1.0320569E5,5.4419586E4,4.7068875E4,5.6136816E4,1.9381674E4,3.503791E4,3.49532E4,1.2115675E4,2.95254E4,2.6611414E4,5.9602725E3,1.3421402E4,3.4097047E4,9.40862E2,4.5273843E3,3.0425816E4,1.5941755E3,1.0521499E4,1.3903498E4,1.5621902E4,1.8151809E4,8.459605E3,6.878704E2,5.272402E3,1.1299591E4,2.1218113E3,1.9632193E4,1.4464854E4,2.9833896E2,6.425231E2],"tree_param":{"num_deleted":"0","num_feature":"14","num_nodes":"31","size_leaf_vector":"1"}},{"base_weights":[-1.598084E-3,-9.223007E-2,5.282166E-2,-1.8524376E-1,-6.6901244E-2,1.9056933E-2,1.1526637E-1,-2.7956268E-1,-1.6424267E-1,-9.882918E-2,-4.9758285E-2,-4.5383386E-3,4.0570356E-2,9.835696E-2,2.0643054E-1,-6.68868E-3,-1.472977E-2,-5.1846015E-3,-9.165229E-3,-5.8872104E-3,-4.1214926E-3,-3.0428781E-3,-8.973985E-4,7.270702E-4,-1.8512331E-3,1.6579714E-3,7.974381E-3,3.5932702E-3,7.2454773E-3,7.3466236E-3,1.4135204E-2],"categories":[],"categories_nodes":[],"categories_segments":[],"categories_sizes":[],"default_left":[0,0,0,0,0,0,0,0,0,0,0,0,0,0,0,0,0,0,0,0,0,0,0,0,0,0,0,0,0,0,0],"id":44,"left_children":[1,3,5,7,9,11,13,15,17,19,21,23,25,27,29,-1,-1,-1,-1,-1,-1,-1,-1,-1,-1,-1,-1,-1,-1,-1,-1],"loss_changes":[7.7342365E2,1.3857892E2,2.0657983E2,2.4847748E1,2.5300919E1,3.2282867E1,5.2966187E1,4.940094E0,1.1853394E1,4.991165E0,1.0622498E1,1.8802065E1,2.9306286E1,3.5755157E1,2.4324112E1,0E0,0E0,0E0,0E0,0E0,0E0,0E0,0E0,0E0,0E0,0E0,0E0,0E0,0E0,0E0,0E0],"parents":[2147483647,0,0,1,1,2,2,3,3,4,4,5,5,6,6,7,7,8,8,9,9,10,10,11,11,12,12,13,13,14,14],"right_children":[2,4,6,8,10,12,14,16,18,20,22,24,26,28,30,-1,-1,-1,-1,-1,-1,-1,-1,-1,-1,-1,-1,-1,-1,-1,-1],"split_conditions":[-6.4331975E0,-2.574359E2,2.4790121E2,-4.7736203E2,-1.3931935E2,4E0,5.5340674E2,2E0,2E0,1.125E0,5E0,3E0,5E1,4E0,1E0,-6.68868E-3,-1.472977E-2,-5.1846015E-3,-9.165229E-3,-5.8872104E-3,-4.1214926E-3,-3.0428781E-3,-8.973985E-4,7.270702E-4,-1.8512331E-3,1.6579714E-3,7.974381E-3,3.5932702E-3,7.2454773E-3,7.3466236E-3,1.4135204E-2],"split_indices":[2,2,2,2,2,12,2,11,11,6,12,11,13,11,11,0,0,0,0,0,0,0,0,0,0,0,0,0,0,0,0],"split_type":[0,0,0,0,0,0,0,0,0,0,0,0,0,0,0,0,0,0,0,0,0,0,0,0,0,0,0,0,0,0,0],"sum_hessian":[1.568081E5,5.8829914E4,9.797818E4,1.2588652E4,4.624126E4,6.3594406E4,3.4383773E4,2.2880522E3,1.03006E4,1.6151097E4,3.0090166E4,3.0330457E4,3.326395E4,2.9007525E4,5.3762476E3,2.1572498E2,2.0723271E3,2.4693916E3,7.831208E3,7.494529E3,8.656567E3,2.2305492E4,7.7846743E3,1.9108707E4,1.1221749E4,3.1314957E4,1.9489922E3,1.8490357E4,1.051717E4,3.0235469E3,2.3527004E3],"tree_param":{"num_deleted":"0","num_feature":"14","num_nodes":"31",